<?xml version="1.0"?>
<opencv_storage>
<cascade>
  <stageType>BOOST</stageType>
  <featureType>HAAR</featureType>
  <height>20</height>
  <width>20</width>
  <stageParams>
    <boostType>GAB</boostType>
    <minHitRate>9.9500000476837158e-01</minHitRate>
    <maxFalseAlarm>5.0000000000000000e-01</maxFalseAlarm>
    <weightTrimRate>9.4999999999999996e-01</weightTrimRate>
    <maxDepth>1</maxDepth>
    <maxWeakCount>100</maxWeakCount></stageParams>
  <featureParams>
    <maxCatCount>0</maxCatCount>
    <featSize>1</featSize>
    <mode>BASIC</mode></featureParams>
  <stageNum>16</stageNum>
  <stages>
    <!-- stage 0 -->
    <_>
      <maxWeakCount>4</maxWeakCount>
      <stageThreshold>-1.4377659559249878e+00</stageThreshold>
      <weakClassifiers>
        <_>
          <internalNodes>
            0 -1 57 1.9914470613002777e-02</internalNodes>
          <leafValues>
            -8.4713375568389893e-01 7.3333334922790527e-01</leafValues></_>
        <_>
          <internalNodes>
            0 -1 31 3.2150216400623322e-02</internalNodes>
          <leafValues>
            -6.4563322067260742e-01 6.9660478830337524e-01</leafValues></_>
        <_>
          <internalNodes>
            0 -1 24 4.0123509243130684e-03</internalNodes>
          <leafValues>
            -6.1141598224639893e-01 7.1576148271560669e-01</leafValues></_>
        <_>
          <internalNodes>
            0 -1 68 3.4623935353010893e-03</internalNodes>
          <leafValues>
            -5.4856199026107788e-01 6.6641700267791748e-01</leafValues></_></weakClassifiers></_>
    <!-- stage 1 -->
    <_>
      <maxWeakCount>3</maxWeakCount>
      <stageThreshold>-1.2867397069931030e+00</stageThreshold>
      <weakClassifiers>
        <_>
          <internalNodes>
            0 -1 38 -2.3912491276860237e-02</internalNodes>
          <leafValues>
            2.7272728085517883e-01 -8.5016286373138428e-01</leafValues></_>
        <_>
          <internalNodes>
            0 -1 55 -8.2543934695422649e-05</internalNodes>
          <leafValues>
            1.8152815103530884e-01 -8.0779552459716797e-01</leafValues></_>
        <_>
          <internalNodes>
            0 -1 19 -1.2853089720010757e-02</internalNodes>
          <leafValues>
            4.2549052834510803e-01 -6.1810499429702759e-01</leafValues></_></weakClassifiers></_>
    <!-- stage 2 -->
    <_>
      <maxWeakCount>6</maxWeakCount>
      <stageThreshold>-1.2498265504837036e+00</stageThreshold>
      <weakClassifiers>
        <_>
          <internalNodes>
            0 -1 62 4.2320758104324341e-02</internalNodes>
          <leafValues>
            -8.1875002384185791e-01 7.7777779102325439e-01</leafValues></_>
        <_>
          <internalNodes>
            0 -1 53 -8.5505004972219467e-04</internalNodes>
          <leafValues>
            4.6123638749122620e-01 -5.8924347162246704e-01</leafValues></_>
        <_>
          <internalNodes>
            0 -1 39 -9.6891057910397649e-04</internalNodes>
          <leafValues>
            4.2108026146888733e-01 -6.4280211925506592e-01</leafValues></_>
        <_>
          <internalNodes>
            0 -1 42 -9.6071293228305876e-05</internalNodes>
          <leafValues>
            5.2153635025024414e-01 -5.3786522150039673e-01</leafValues></_>
        <_>
          <internalNodes>
            0 -1 25 3.3673796802759171e-02</internalNodes>
          <leafValues>
            -5.0032162666320801e-01 6.2240254878997803e-01</leafValues></_>
        <_>
          <internalNodes>
            0 -1 49 6.0591917484998703e-02</internalNodes>
          <leafValues>
            -2.8412806987762451e-01 8.7866079807281494e-01</leafValues></_></weakClassifiers></_>
    <!-- stage 3 -->
    <_>
      <maxWeakCount>3</maxWeakCount>
      <stageThreshold>-1.1938308477401733e+00</stageThreshold>
      <weakClassifiers>
        <_>
          <internalNodes>
            0 -1 27 -1.6763603780418634e-03</internalNodes>
          <leafValues>
            5.7142859697341919e-01 -8.3492064476013184e-01</leafValues></_>
        <_>
          <internalNodes>
            0 -1 20 -3.1727500027045608e-04</internalNodes>
          <leafValues>
            4.1380634903907776e-01 -6.9499462842941284e-01</leafValues></_>
        <_>
          <internalNodes>
            0 -1 7 -5.7000818196684122e-04</internalNodes>
          <leafValues>
            3.3608445525169373e-01 -7.6074296236038208e-01</leafValues></_></weakClassifiers></_>
    <!-- stage 4 -->
    <_>
      <maxWeakCount>3</maxWeakCount>
      <stageThreshold>-1.0729130506515503e+00</stageThreshold>
      <weakClassifiers>
        <_>
          <internalNodes>
            0 -1 40 2.0375112071633339e-02</internalNodes>
          <leafValues>
            -8.1250000000000000e-01 5.5555558204650879e-01</leafValues></_>
        <_>
          <internalNodes>
            0 -1 15 1.7478075460530818e-04</internalNodes>
          <leafValues>
            -6.9359236955642700e-01 2.0825730264186859e-01</leafValues></_>
        <_>
          <internalNodes>
            0 -1 26 3.1509364489465952e-03</internalNodes>
          <leafValues>
            -4.6867039799690247e-01 4.5451286435127258e-01</leafValues></_></weakClassifiers></_>
    <!-- stage 5 -->
    <_>
      <maxWeakCount>5</maxWeakCount>
      <stageThreshold>-1.3521753549575806e+00</stageThreshold>
      <weakClassifiers>
        <_>
          <internalNodes>
            0 -1 35 7.7264108695089817e-03</internalNodes>
          <leafValues>
            -8.2334387302398682e-01 5.0000000000000000e-01</leafValues></_>
        <_>
          <internalNodes>
            0 -1 45 3.1687929295003414e-03</internalNodes>
          <leafValues>
            -5.1575142145156860e-01 5.1567792892456055e-01</leafValues></_>
        <_>
          <internalNodes>
            0 -1 14 1.6226861625909805e-03</internalNodes>
          <leafValues>
            -6.5687793493270874e-01 3.9212965965270996e-01</leafValues></_>
        <_>
          <internalNodes>
            0 -1 54 -4.1444913222221658e-05</internalNodes>
          <leafValues>
            3.3096793293952942e-01 -5.9073424339294434e-01</leafValues></_>
        <_>
          <internalNodes>
            0 -1 43 -8.7566513684578240e-05</internalNodes>
          <leafValues>
            3.1282994151115417e-01 -6.3952553272247314e-01</leafValues></_></weakClassifiers></_>
    <!-- stage 6 -->
    <_>
      <maxWeakCount>3</maxWeakCount>
      <stageThreshold>-1.1585475206375122e+00</stageThreshold>
      <weakClassifiers>
        <_>
          <internalNodes>
            0 -1 8 -1.2954635545611382e-02</internalNodes>
          <leafValues>
            2.3809523880481720e-01 -8.4415584802627563e-01</leafValues></_>
        <_>
          <internalNodes>
            0 -1 64 -1.3089036801829934e-03</internalNodes>
          <leafValues>
            3.1387886404991150e-01 -6.4076620340347290e-01</leafValues></_>
        <_>
          <internalNodes>
            0 -1 58 -1.4530599582940340e-04</internalNodes>
          <leafValues>
            3.2637453079223633e-01 -6.1094683408737183e-01</leafValues></_></weakClassifiers></_>
    <!-- stage 7 -->
    <_>
      <maxWeakCount>3</maxWeakCount>
      <stageThreshold>-8.8777911663055420e-01</stageThreshold>
      <weakClassifiers>
        <_>
          <internalNodes>
            0 -1 33 3.5336441360414028e-03</internalNodes>
          <leafValues>
            -8.5016286373138428e-01 2.7272728085517883e-01</leafValues></_>
        <_>
          <internalNodes>
            0 -1 22 -4.1566365398466587e-03</internalNodes>
          <leafValues>
            4.9982285499572754e-01 -6.5470367670059204e-01</leafValues></_>
        <_>
          <internalNodes>
            0 -1 45 1.1255962308496237e-03</internalNodes>
          <leafValues>
            -5.0580269098281860e-01 6.3655084371566772e-01</leafValues></_></weakClassifiers></_>
    <!-- stage 8 -->
    <_>
      <maxWeakCount>6</maxWeakCount>
      <stageThreshold>-1.6801491975784302e+00</stageThreshold>
      <weakClassifiers>
        <_>
          <internalNodes>
            0 -1 32 8.2310378551483154e-02</internalNodes>
          <leafValues>
            -8.1818181276321411e-01 6.0000002384185791e-01</leafValues></_>
        <_>
          <internalNodes>
            0 -1 10 -1.6310679493471980e-03</internalNodes>
          <leafValues>
            2.7192446589469910e-01 -6.1332869529724121e-01</leafValues></_>
        <_>
          <internalNodes>
            0 -1 30 7.5912079773843288e-04</internalNodes>
          <leafValues>
            -4.2588987946510315e-01 5.3748250007629395e-01</leafValues></_>
        <_>
          <internalNodes>
            0 -1 2 -4.0014623664319515e-03</internalNodes>
          <leafValues>
            -8.0328428745269775e-01 2.6785287261009216e-01</leafValues></_>
        <_>
          <internalNodes>
            0 -1 59 -6.4321968238800764e-05</internalNodes>
          <leafValues>
            3.8970872759819031e-01 -5.9357559680938721e-01</leafValues></_>
        <_>
          <internalNodes>
            0 -1 63 6.9527432788163424e-04</internalNodes>
          <leafValues>
            -5.1878398656845093e-01 5.0297385454177856e-01</leafValues></_></weakClassifiers></_>
    <!-- stage 9 -->
    <_>
      <maxWeakCount>5</maxWeakCount>
      <stageThreshold>-1.2954560518264771e+00</stageThreshold>
      <weakClassifiers>
        <_>
          <internalNodes>
            0 -1 28 2.5359306484460831e-02</internalNodes>
          <leafValues>
            -8.0246913433074951e-01 1.</leafValues></_>
        <_>
          <internalNodes>
            0 -1 34 -2.0136730745434761e-04</internalNodes>
          <leafValues>
            1.2900999188423157e-01 -6.9812482595443726e-01</leafValues></_>
        <_>
          <internalNodes>
            0 -1 11 -7.3346793651580811e-02</internalNodes>
          <leafValues>
            4.6499803662300110e-01 -4.1129326820373535e-01</leafValues></_>
        <_>
          <internalNodes>
            0 -1 52 -2.0059654489159584e-03</internalNodes>
          <leafValues>
            4.9590256810188293e-01 -4.0732404589653015e-01</leafValues></_>
        <_>
          <internalNodes>
            0 -1 67 -1.4242443721741438e-03</internalNodes>
          <leafValues>
            -1. 1.9662036001682281e-01</leafValues></_></weakClassifiers></_>
    <!-- stage 10 -->
    <_>
      <maxWeakCount>5</maxWeakCount>
      <stageThreshold>-1.1392587423324585e+00</stageThreshold>
      <weakClassifiers>
        <_>
          <internalNodes>
            0 -1 18 1.1755887418985367e-02</internalNodes>
          <leafValues>
            -8.1703472137451172e-01 3.3333334326744080e-01</leafValues></_>
        <_>
          <internalNodes>
            0 -1 0 1.4341579377651215e-01</internalNodes>
          <leafValues>
            -6.0427820682525635e-01 2.6033335924148560e-01</leafValues></_>
        <_>
          <internalNodes>
            0 -1 9 -1.4442668296396732e-02</internalNodes>
          <leafValues>
            -9.3486601114273071e-01 1.5582194924354553e-01</leafValues></_>
        <_>
          <internalNodes>
            0 -1 41 1.3128027319908142e-02</internalNodes>
          <leafValues>
            -3.4363684058189392e-01 6.2363547086715698e-01</leafValues></_>
        <_>
          <internalNodes>
            0 -1 56 1.6052477061748505e-02</internalNodes>
          <leafValues>
            -3.9474254846572876e-01 5.5780643224716187e-01</leafValues></_></weakClassifiers></_>
    <!-- stage 11 -->
    <_>
      <maxWeakCount>6</maxWeakCount>
      <stageThreshold>-1.1882655620574951e+00</stageThreshold>
      <weakClassifiers>
        <_>
          <internalNodes>
            0 -1 6 -1.6757807135581970e-01</internalNodes>
          <leafValues>
            1. -7.9692310094833374e-01</leafValues></_>
        <_>
          <internalNodes>
            0 -1 36 -2.1607088856399059e-03</internalNodes>
          <leafValues>
            2.7659997344017029e-01 -5.5236619710922241e-01</leafValues></_>
        <_>
          <internalNodes>
            0 -1 3 -1.2098655104637146e-02</internalNodes>
          <leafValues>
            -9.0995126962661743e-01 2.0048171281814575e-01</leafValues></_>
        <_>
          <internalNodes>
            0 -1 4 -2.7607339434325695e-03</internalNodes>
          <leafValues>
            4.5632088184356689e-01 -3.6520227789878845e-01</leafValues></_>
        <_>
          <internalNodes>
            0 -1 61 -7.5706938514485955e-04</internalNodes>
          <leafValues>
            -8.0932378768920898e-01 2.5558799505233765e-01</leafValues></_>
        <_>
          <internalNodes>
            0 -1 60 -3.7313275242922828e-05</internalNodes>
          <leafValues>
            3.1354489922523499e-01 -5.3250539302825928e-01</leafValues></_></weakClassifiers></_>
    <!-- stage 12 -->
    <_>
      <maxWeakCount>5</maxWeakCount>
      <stageThreshold>-1.0845389366149902e+00</stageThreshold>
      <weakClassifiers>
        <_>
          <internalNodes>
            0 -1 65 -2.0295724272727966e-02</internalNodes>
          <leafValues>
            5.0000000000000000e-01 -8.0685359239578247e-01</leafValues></_>
        <_>
          <internalNodes>
            0 -1 29 5.2594742737710476e-03</internalNodes>
          <leafValues>
            -4.6687433123588562e-01 3.7912133336067200e-01</leafValues></_>
        <_>
          <internalNodes>
            0 -1 23 -7.4929892434738576e-05</internalNodes>
          <leafValues>
            5.0798290967941284e-01 -3.9478269219398499e-01</leafValues></_>
        <_>
          <internalNodes>
            0 -1 48 -3.4180574584752321e-04</internalNodes>
          <leafValues>
            4.3444761633872986e-01 -3.8373318314552307e-01</leafValues></_>
        <_>
          <internalNodes>
            0 -1 1 1.3059555552899837e-02</internalNodes>
          <leafValues>
            2.1447645127773285e-01 -7.5324153900146484e-01</leafValues></_></weakClassifiers></_>
    <!-- stage 13 -->
    <_>
      <maxWeakCount>6</maxWeakCount>
      <stageThreshold>-1.0984497070312500e+00</stageThreshold>
      <weakClassifiers>
        <_>
          <internalNodes>
            0 -1 17 -1.1303779482841492e-01</internalNodes>
          <leafValues>
            3.3333334326744080e-01 -8.1703472137451172e-01</leafValues></_>
        <_>
          <internalNodes>
            0 -1 5 -5.3400125354528427e-02</internalNodes>
          <leafValues>
            6.2053453922271729e-01 -4.4686573743820190e-01</leafValues></_>
        <_>
          <internalNodes>
            0 -1 69 -5.8540119789540768e-04</internalNodes>
          <leafValues>
            -8.5269236564636230e-01 1.6226179897785187e-01</leafValues></_>
        <_>
          <internalNodes>
            0 -1 46 5.1498052198439837e-04</internalNodes>
          <leafValues>
            -3.7699133157730103e-01 3.9840745925903320e-01</leafValues></_>
        <_>
          <internalNodes>
            0 -1 12 -5.9277354739606380e-04</internalNodes>
          <leafValues>
            -7.1437269449234009e-01 2.5458347797393799e-01</leafValues></_>
        <_>
          <internalNodes>
            0 -1 37 -7.6870381599292159e-04</internalNodes>
          <leafValues>
            3.1915414333343506e-01 -5.2438825368881226e-01</leafValues></_></weakClassifiers></_>
    <!-- stage 14 -->
    <_>
      <maxWeakCount>6</maxWeakCount>
      <stageThreshold>-1.3367394208908081e+00</stageThreshold>
      <weakClassifiers>
        <_>
          <internalNodes>
            0 -1 66 1.0127898305654526e-02</internalNodes>
          <leafValues>
            -8.0246913433074951e-01 1.</leafValues></_>
        <_>
          <internalNodes>
            0 -1 51 2.4568192660808563e-02</internalNodes>
          <leafValues>
            -5.5710905790328979e-01 3.1183901429176331e-01</leafValues></_>
        <_>
          <internalNodes>
            0 -1 21 -7.9598405864089727e-04</internalNodes>
          <leafValues>
            4.0455400943756104e-01 -4.6332624554634094e-01</leafValues></_>
        <_>
          <internalNodes>
            0 -1 70 -1.3572184834629297e-03</internalNodes>
          <leafValues>
            -7.7526909112930298e-01 2.2783523797988892e-01</leafValues></_>
        <_>
          <internalNodes>
            0 -1 47 2.0594259258359671e-03</internalNodes>
          <leafValues>
            2.1048241853713989e-01 -8.0836331844329834e-01</leafValues></_>
        <_>
          <internalNodes>
            0 -1 44 4.4709083158522844e-04</internalNodes>
          <leafValues>
            1.9881284236907959e-01 -7.9986423254013062e-01</leafValues></_></weakClassifiers></_>
    <!-- stage 15 -->
    <_>
      <maxWeakCount>3</maxWeakCount>
      <stageThreshold>-1.0729216337203979e+00</stageThreshold>
      <weakClassifiers>
        <_>
          <internalNodes>
            0 -1 50 -3.8033961318433285e-03</internalNodes>
          <leafValues>
            7.1428573131561279e-01 -8.0745339393615723e-01</leafValues></_>
        <_>
          <internalNodes>
            0 -1 16 1.5580494655296206e-03</internalNodes>
          <leafValues>
            -5.2198302745819092e-01 3.6421018838882446e-01</leafValues></_>
        <_>
          <internalNodes>
            0 -1 13 -3.3818550407886505e-02</internalNodes>
          <leafValues>
            -6.2967842817306519e-01 3.6679112911224365e-01</leafValues></_></weakClassifiers></_></stages>
  <features>
    <_>
      <rects>
        <_>
          0 1 19 12 -1.</_>
        <_>
          0 5 19 4 3.</_></rects>
      <tilted>0</tilted></_>
    <_>
      <rects>
        <_>
          0 3 20 1 -1.</_>
        <_>
          10 3 10 1 2.</_></rects>
      <tilted>0</tilted></_>
    <_>
      <rects>
        <_>
          0 5 1 12 -1.</_>
        <_>
          0 11 1 6 2.</_></rects>
      <tilted>0</tilted></_>
    <_>
      <rects>
        <_>
          0 6 9 4 -1.</_>
        <_>
          0 8 9 2 2.</_></rects>
      <tilted>0</tilted></_>
    <_>
      <rects>
        <_>
          0 10 2 6 -1.</_>
        <_>
          0 10 1 3 2.</_>
        <_>
          1 13 1 3 2.</_></rects>
      <tilted>0</tilted></_>
    <_>
      <rects>
        <_>
          0 11 8 8 -1.</_>
        <_>
          0 11 4 4 2.</_>
        <_>
          4 15 4 4 2.</_></rects>
      <tilted>0</tilted></_>
    <_>
      <rects>
        <_>
          0 13 18 3 -1.</_>
        <_>
          6 13 6 3 3.</_></rects>
      <tilted>0</tilted></_>
    <_>
      <rects>
        <_>
          0 18 6 2 -1.</_>
        <_>
          3 18 3 2 2.</_></rects>
      <tilted>0</tilted></_>
    <_>
      <rects>
        <_>
          1 0 3 8 -1.</_>
        <_>
          2 0 1 8 3.</_></rects>
      <tilted>0</tilted></_>
    <_>
      <rects>
        <_>
          1 3 8 6 -1.</_>
        <_>
          1 5 8 2 3.</_></rects>
      <tilted>0</tilted></_>
    <_>
      <rects>
        <_>
          1 5 3 3 -1.</_>
        <_>
          2 5 1 3 3.</_></rects>
      <tilted>0</tilted></_>
    <_>
      <rects>
        <_>
          1 10 16 8 -1.</_>
        <_>
          1 14 16 4 2.</_></rects>
      <tilted>0</tilted></_>
    <_>
      <rects>
        <_>
          1 18 3 2 -1.</_>
        <_>
          2 18 1 2 3.</_></rects>
      <tilted>0</tilted></_>
    <_>
      <rects>
        <_>
          2 1 16 12 -1.</_>
        <_>
          10 1 8 12 2.</_></rects>
      <tilted>0</tilted></_>
    <_>
      <rects>
        <_>
          2 6 4 6 -1.</_>
        <_>
          2 8 4 2 3.</_></rects>
      <tilted>0</tilted></_>
    <_>
      <rects>
        <_>
          2 13 2 4 -1.</_>
        <_>
          2 13 1 2 2.</_>
        <_>
          3 15 1 2 2.</_></rects>
      <tilted>0</tilted></_>
    <_>
      <rects>
        <_>
          2 14 4 2 -1.</_>
        <_>
          2 14 2 1 2.</_>
        <_>
          4 15 2 1 2.</_></rects>
      <tilted>0</tilted></_>
    <_>
      <rects>
        <_>
          3 1 16 8 -1.</_>
        <_>
          3 1 8 4 2.</_>
        <_>
          11 5 8 4 2.</_></rects>
      <tilted>0</tilted></_>
    <_>
      <rects>
        <_>
          3 9 2 8 -1.</_>
        <_>
          3 9 1 4 2.</_>
        <_>
          4 13 1 4 2.</_></rects>
      <tilted>0</tilted></_>
    <_>
      <rects>
        <_>
          3 11 12 8 -1.</_>
        <_>
          7 11 4 8 3.</_></rects>
      <tilted>0</tilted></_>
    <_>
      <rects>
        <_>
          3 13 2 2 -1.</_>
        <_>
          3 13 1 1 2.</_>
        <_>
          4 14 1 1 2.</_></rects>
      <tilted>0</tilted></_>
    <_>
      <rects>
        <_>
          3 13 4 2 -1.</_>
        <_>
          3 13 2 1 2.</_>
        <_>
          5 14 2 1 2.</_></rects>
      <tilted>0</tilted></_>
    <_>
      <rects>
        <_>
          4 0 2 10 -1.</_>
        <_>
          4 0 1 5 2.</_>
        <_>
          5 5 1 5 2.</_></rects>
      <tilted>0</tilted></_>
    <_>
      <rects>
        <_>
          4 3 1 2 -1.</_>
        <_>
          4 4 1 1 2.</_></rects>
      <tilted>0</tilted></_>
    <_>
      <rects>
        <_>
          4 18 10 2 -1.</_>
        <_>
          4 19 10 1 2.</_></rects>
      <tilted>0</tilted></_>
    <_>
      <rects>
        <_>
          5 2 14 6 -1.</_>
        <_>
          5 4 14 2 3.</_></rects>
      <tilted>0</tilted></_>
    <_>
      <rects>
        <_>
          5 6 4 4 -1.</_>
        <_>
          5 6 2 2 2.</_>
        <_>
          7 8 2 2 2.</_></rects>
      <tilted>0</tilted></_>
    <_>
      <rects>
        <_>
          5 14 2 2 -1.</_>
        <_>
          5 14 1 1 2.</_>
        <_>
          6 15 1 1 2.</_></rects>
      <tilted>0</tilted></_>
    <_>
      <rects>
        <_>
          6 1 2 4 -1.</_>
        <_>
          6 3 2 2 2.</_></rects>
      <tilted>0</tilted></_>
    <_>
      <rects>
        <_>
          6 2 3 2 -1.</_>
        <_>
          6 3 3 1 2.</_></rects>
      <tilted>0</tilted></_>
    <_>
      <rects>
        <_>
          6 4 3 1 -1.</_>
        <_>
          7 4 1 1 3.</_></rects>
      <tilted>0</tilted></_>
    <_>
      <rects>
        <_>
          7 2 12 4 -1.</_>
        <_>
          7 4 12 2 2.</_></rects>
      <tilted>0</tilted></_>
    <_>
      <rects>
        <_>
          7 5 8 10 -1.</_>
        <_>
          7 5 4 5 2.</_>
        <_>
          11 10 4 5 2.</_></rects>
      <tilted>0</tilted></_>
    <_>
      <rects>
        <_>
          7 14 4 2 -1.</_>
        <_>
          7 14 2 1 2.</_>
        <_>
          9 15 2 1 2.</_></rects>
      <tilted>0</tilted></_>
    <_>
      <rects>
        <_>
          7 15 1 3 -1.</_>
        <_>
          7 16 1 1 3.</_></rects>
      <tilted>0</tilted></_>
    <_>
      <rects>
        <_>
          8 2 2 6 -1.</_>
        <_>
          8 2 1 3 2.</_>
        <_>
          9 5 1 3 2.</_></rects>
      <tilted>0</tilted></_>
    <_>
      <rects>
        <_>
          8 3 3 3 -1.</_>
        <_>
          8 4 3 1 3.</_></rects>
      <tilted>0</tilted></_>
    <_>
      <rects>
        <_>
          8 3 6 2 -1.</_>
        <_>
          11 3 3 2 2.</_></rects>
      <tilted>0</tilted></_>
    <_>
      <rects>
        <_>
          8 5 1 12 -1.</_>
        <_>
          8 11 1 6 2.</_></rects>
      <tilted>0</tilted></_>
    <_>
      <rects>
        <_>
          8 8 1 4 -1.</_>
        <_>
          8 10 1 2 2.</_></rects>
      <tilted>0</tilted></_>
    <_>
      <rects>
        <_>
          8 8 1 9 -1.</_>
        <_>
          8 11 1 3 3.</_></rects>
      <tilted>0</tilted></_>
    <_>
      <rects>
        <_>
          8 10 6 6 -1.</_>
        <_>
          8 12 6 2 3.</_></rects>
      <tilted>0</tilted></_>
    <_>
      <rects>
        <_>
          9 6 2 2 -1.</_>
        <_>
          9 6 1 1 2.</_>
        <_>
          10 7 1 1 2.</_></rects>
      <tilted>0</tilted></_>
    <_>
      <rects>
        <_>
          10 11 3 2 -1.</_>
        <_>
          10 12 3 1 2.</_></rects>
      <tilted>0</tilted></_>
    <_>
      <rects>
        <_>
          12 0 3 1 -1.</_>
        <_>
          13 0 1 1 3.</_></rects>
      <tilted>0</tilted></_>
    <_>
      <rects>
        <_>
          12 10 3 1 -1.</_>
        <_>
          13 10 1 1 3.</_></rects>
      <tilted>0</tilted></_>
    <_>
      <rects>
        <_>
          12 18 2 1 -1.</_>
        <_>
          13 18 1 1 2.</_></rects>
      <tilted>0</tilted></_>
    <_>
      <rects>
        <_>
          13 11 4 2 -1.</_>
        <_>
          13 11 2 1 2.</_>
        <_>
          15 12 2 1 2.</_></rects>
      <tilted>0</tilted></_>
    <_>
      <rects>
        <_>
          13 13 2 2 -1.</_>
        <_>
          13 13 1 1 2.</_>
        <_>
          14 14 1 1 2.</_></rects>
      <tilted>0</tilted></_>
    <_>
      <rects>
        <_>
          14 1 6 16 -1.</_>
        <_>
          14 1 3 8 2.</_>
        <_>
          17 9 3 8 2.</_></rects>
      <tilted>0</tilted></_>
    <_>
      <rects>
        <_>
          14 3 2 1 -1.</_>
        <_>
          15 3 1 1 2.</_></rects>
      <tilted>0</tilted></_>
    <_>
      <rects>
        <_>
          14 5 4 12 -1.</_>
        <_>
          14 9 4 4 3.</_></rects>
      <tilted>0</tilted></_>
    <_>
      <rects>
        <_>
          14 9 2 6 -1.</_>
        <_>
          14 9 1 3 2.</_>
        <_>
          15 12 1 3 2.</_></rects>
      <tilted>0</tilted></_>
    <_>
      <rects>
        <_>
          14 11 2 2 -1.</_>
        <_>
          14 11 1 1 2.</_>
        <_>
          15 12 1 1 2.</_></rects>
      <tilted>0</tilted></_>
    <_>
      <rects>
        <_>
          14 18 6 2 -1.</_>
        <_>
          14 18 3 1 2.</_>
        <_>
          17 19 3 1 2.</_></rects>
      <tilted>0</tilted></_>
    <_>
      <rects>
        <_>
          15 8 1 2 -1.</_>
        <_>
          15 9 1 1 2.</_></rects>
      <tilted>0</tilted></_>
    <_>
      <rects>
        <_>
          15 11 4 8 -1.</_>
        <_>
          15 15 4 4 2.</_></rects>
      <tilted>0</tilted></_>
    <_>
      <rects>
        <_>
          15 12 4 4 -1.</_>
        <_>
          17 12 2 4 2.</_></rects>
      <tilted>0</tilted></_>
    <_>
      <rects>
        <_>
          15 14 2 4 -1.</_>
        <_>
          15 14 1 2 2.</_>
        <_>
          16 16 1 2 2.</_></rects>
      <tilted>0</tilted></_>
    <_>
      <rects>
        <_>
          16 3 2 6 -1.</_>
        <_>
          16 3 1 3 2.</_>
        <_>
          17 6 1 3 2.</_></rects>
      <tilted>0</tilted></_>
    <_>
      <rects>
        <_>
          16 9 4 2 -1.</_>
        <_>
          16 10 4 1 2.</_></rects>
      <tilted>0</tilted></_>
    <_>
      <rects>
        <_>
          17 0 3 2 -1.</_>
        <_>
          18 0 1 2 3.</_></rects>
      <tilted>0</tilted></_>
    <_>
      <rects>
        <_>
          17 1 1 18 -1.</_>
        <_>
          17 7 1 6 3.</_></rects>
      <tilted>0</tilted></_>
    <_>
      <rects>
        <_>
          17 11 3 1 -1.</_>
        <_>
          18 11 1 1 3.</_></rects>
      <tilted>0</tilted></_>
    <_>
      <rects>
        <_>
          17 11 2 4 -1.</_>
        <_>
          17 11 1 2 2.</_>
        <_>
          18 13 1 2 2.</_></rects>
      <tilted>0</tilted></_>
    <_>
      <rects>
        <_>
          17 11 1 8 -1.</_>
        <_>
          17 15 1 4 2.</_></rects>
      <tilted>0</tilted></_>
    <_>
      <rects>
        <_>
          18 9 2 2 -1.</_>
        <_>
          19 9 1 2 2.</_></rects>
      <tilted>0</tilted></_>
    <_>
      <rects>
        <_>
          18 18 2 2 -1.</_>
        <_>
          18 19 2 1 2.</_></rects>
      <tilted>0</tilted></_>
    <_>
      <rects>
        <_>
          19 6 1 14 -1.</_>
        <_>
          19 13 1 7 2.</_></rects>
      <tilted>0</tilted></_>
    <_>
      <rects>
        <_>
          19 9 1 2 -1.</_>
        <_>
          19 10 1 1 2.</_></rects>
      <tilted>0</tilted></_>
    <_>
      <rects>
        <_>
          19 12 1 6 -1.</_>
        <_>
          19 14 1 2 3.</_></rects>
      <tilted>0</tilted></_></features></cascade>
</opencv_storage>
