<?xml version="1.0"?>
<opencv_storage>
<stage14>
  <maxWeakCount>19</maxWeakCount>
  <stageThreshold>-7.0544224977493286e-01</stageThreshold>
  <weakClassifiers>
    <_>
      <internalNodes>
        0 -1 2168 -1.9417901057749987e-03</internalNodes>
      <leafValues>
        -4.7586205601692200e-01 1.8849840760231018e-01</leafValues></_>
    <_>
      <internalNodes>
        0 -1 37746 -5.7711042463779449e-02</internalNodes>
      <leafValues>
        2.2452072799205780e-01 -2.8961533308029175e-01</leafValues></_>
    <_>
      <internalNodes>
        0 -1 77665 -6.0401775408536196e-04</internalNodes>
      <leafValues>
        -3.4863299131393433e-01 1.7445701360702515e-01</leafValues></_>
    <_>
      <internalNodes>
        0 -1 4402 -1.1924703605473042e-02</internalNodes>
      <leafValues>
        -4.9412944912910461e-01 1.0493198782205582e-01</leafValues></_>
    <_>
      <internalNodes>
        0 -1 78018 1.1371539440006018e-03</internalNodes>
      <leafValues>
        1.3639836013317108e-01 -3.6264196038246155e-01</leafValues></_>
    <_>
      <internalNodes>
        0 -1 46449 -1.1429257690906525e-01</internalNodes>
      <leafValues>
        4.7135302424430847e-01 -1.0932023823261261e-01</leafValues></_>
    <_>
      <internalNodes>
        0 -1 40780 5.5762961506843567e-02</internalNodes>
      <leafValues>
        -1.3510534167289734e-01 4.6269986033439636e-01</leafValues></_>
    <_>
      <internalNodes>
        0 -1 73984 -8.2181730249430984e-05</internalNodes>
      <leafValues>
        2.3167750239372253e-01 -2.5137504935264587e-01</leafValues></_>
    <_>
      <internalNodes>
        0 -1 76638 5.6870168918976560e-05</internalNodes>
      <leafValues>
        -2.1539008617401123e-01 2.5034645199775696e-01</leafValues></_>
    <_>
      <internalNodes>
        0 -1 56584 -7.1716564707458019e-04</internalNodes>
      <leafValues>
        2.5533744692802429e-01 -2.0172631740570068e-01</leafValues></_>
    <_>
      <internalNodes>
        0 -1 65738 5.6540109217166901e-03</internalNodes>
      <leafValues>
        1.0596727579832077e-01 -5.7487010955810547e-01</leafValues></_>
    <_>
      <internalNodes>
        0 -1 76651 5.5164634250104427e-04</internalNodes>
      <leafValues>
        -2.3240792751312256e-01 2.3525172472000122e-01</leafValues></_>
    <_>
      <internalNodes>
        0 -1 269 -1.0720411315560341e-02</internalNodes>
      <leafValues>
        -4.9022853374481201e-01 1.1015760153532028e-01</leafValues></_>
    <_>
      <internalNodes>
        0 -1 7818 4.7792410477995872e-03</internalNodes>
      <leafValues>
        1.5040735900402069e-01 -4.2244428396224976e-01</leafValues></_>
    <_>
      <internalNodes>
        0 -1 1665 4.5303676277399063e-02</internalNodes>
      <leafValues>
        -2.3504406213760376e-01 2.7983355522155762e-01</leafValues></_>
    <_>
      <internalNodes>
        0 -1 51700 7.7195200137794018e-03</internalNodes>
      <leafValues>
        -1.4374271035194397e-01 3.5924401879310608e-01</leafValues></_>
    <_>
      <internalNodes>
        0 -1 77660 8.3973666187375784e-04</internalNodes>
      <leafValues>
        1.2343356758356094e-01 -4.7873392701148987e-01</leafValues></_>
    <_>
      <internalNodes>
        0 -1 62398 2.6009266730397940e-03</internalNodes>
      <leafValues>
        7.3607645928859711e-02 -7.5597465038299561e-01</leafValues></_>
    <_>
      <internalNodes>
        0 -1 70579 -6.8874806165695190e-03</internalNodes>
      <leafValues>
        6.1103928089141846e-01 -1.0110390931367874e-01</leafValues></_></weakClassifiers></stage14>
</opencv_storage>
