<?xml version="1.0"?>
<opencv_storage>
<cascade>
  <stageType>BOOST</stageType>
  <featureType>HAAR</featureType>
  <height>25</height>
  <width>25</width>
  <stageParams>
    <boostType>GAB</boostType>
    <minHitRate>9.9500000476837158e-01</minHitRate>
    <maxFalseAlarm>5.0000000000000000e-01</maxFalseAlarm>
    <weightTrimRate>9.4999999999999996e-01</weightTrimRate>
    <maxDepth>1</maxDepth>
    <maxWeakCount>100</maxWeakCount></stageParams>
  <featureParams>
    <maxCatCount>0</maxCatCount>
    <featSize>1</featSize>
    <mode>BASIC</mode></featureParams>
  <stageNum>20</stageNum>
  <stages>
    <!-- stage 0 -->
    <_>
      <maxWeakCount>5</maxWeakCount>
      <stageThreshold>-1.6422824859619141e+00</stageThreshold>
      <weakClassifiers>
        <_>
          <internalNodes>
            0 -1 111 3.6408860236406326e-02</internalNodes>
          <leafValues>
            -7.7777779102325439e-01 6.5217393636703491e-01</leafValues></_>
        <_>
          <internalNodes>
            0 -1 4 1.6093079000711441e-02</internalNodes>
          <leafValues>
            -6.9319760799407959e-01 5.7298523187637329e-01</leafValues></_>
        <_>
          <internalNodes>
            0 -1 84 -2.1475967951118946e-03</internalNodes>
          <leafValues>
            6.5512943267822266e-01 -5.7845425605773926e-01</leafValues></_>
        <_>
          <internalNodes>
            0 -1 17 -2.9878787696361542e-02</internalNodes>
          <leafValues>
            5.7689058780670166e-01 -5.8962720632553101e-01</leafValues></_>
        <_>
          <internalNodes>
            0 -1 96 -7.9274852760136127e-04</internalNodes>
          <leafValues>
            6.9865292310714722e-01 -4.3317732214927673e-01</leafValues></_></weakClassifiers></_>
    <!-- stage 1 -->
    <_>
      <maxWeakCount>4</maxWeakCount>
      <stageThreshold>-1.3996253013610840e+00</stageThreshold>
      <weakClassifiers>
        <_>
          <internalNodes>
            0 -1 55 -1.4377892017364502e-01</internalNodes>
          <leafValues>
            3.9393940567970276e-01 -9.0099012851715088e-01</leafValues></_>
        <_>
          <internalNodes>
            0 -1 69 4.1736112907528877e-03</internalNodes>
          <leafValues>
            -6.8156081438064575e-01 5.7493466138839722e-01</leafValues></_>
        <_>
          <internalNodes>
            0 -1 132 -9.2211412265896797e-05</internalNodes>
          <leafValues>
            4.8887628316879272e-01 -5.4415076971054077e-01</leafValues></_>
        <_>
          <internalNodes>
            0 -1 109 4.7240741550922394e-02</internalNodes>
          <leafValues>
            -5.6785309314727783e-01 5.1283282041549683e-01</leafValues></_></weakClassifiers></_>
    <!-- stage 2 -->
    <_>
      <maxWeakCount>5</maxWeakCount>
      <stageThreshold>-7.1421390771865845e-01</stageThreshold>
      <weakClassifiers>
        <_>
          <internalNodes>
            0 -1 6 1.4001672156155109e-02</internalNodes>
          <leafValues>
            -7.9069769382476807e-01 5.5474454164505005e-01</leafValues></_>
        <_>
          <internalNodes>
            0 -1 26 -1.0674533434212208e-02</internalNodes>
          <leafValues>
            6.1357498168945312e-01 -5.2251809835433960e-01</leafValues></_>
        <_>
          <internalNodes>
            0 -1 14 8.1529403105378151e-03</internalNodes>
          <leafValues>
            -5.9257870912551880e-01 5.3448408842086792e-01</leafValues></_>
        <_>
          <internalNodes>
            0 -1 74 -3.4311582567170262e-05</internalNodes>
          <leafValues>
            5.5971485376358032e-01 -4.8395034670829773e-01</leafValues></_>
        <_>
          <internalNodes>
            0 -1 134 -7.1594635955989361e-03</internalNodes>
          <leafValues>
            6.4656472206115723e-01 -4.9519711732864380e-01</leafValues></_></weakClassifiers></_>
    <!-- stage 3 -->
    <_>
      <maxWeakCount>5</maxWeakCount>
      <stageThreshold>-6.5549266338348389e-01</stageThreshold>
      <weakClassifiers>
        <_>
          <internalNodes>
            0 -1 68 5.3517203778028488e-03</internalNodes>
          <leafValues>
            -6.3157892227172852e-01 6.1403506994247437e-01</leafValues></_>
        <_>
          <internalNodes>
            0 -1 131 -2.0243009203113616e-05</internalNodes>
          <leafValues>
            6.8936389684677124e-01 -4.3919989466667175e-01</leafValues></_>
        <_>
          <internalNodes>
            0 -1 119 -6.5736360847949982e-03</internalNodes>
          <leafValues>
            4.4155415892601013e-01 -6.9222408533096313e-01</leafValues></_>
        <_>
          <internalNodes>
            0 -1 76 7.6169386506080627e-02</internalNodes>
          <leafValues>
            -4.9124425649642944e-01 5.3430396318435669e-01</leafValues></_>
        <_>
          <internalNodes>
            0 -1 118 -3.4712520573521033e-05</internalNodes>
          <leafValues>
            5.7320630550384521e-01 -5.0245749950408936e-01</leafValues></_></weakClassifiers></_>
    <!-- stage 4 -->
    <_>
      <maxWeakCount>6</maxWeakCount>
      <stageThreshold>-1.2196516990661621e+00</stageThreshold>
      <weakClassifiers>
        <_>
          <internalNodes>
            0 -1 10 3.4542553126811981e-02</internalNodes>
          <leafValues>
            -5.9090906381607056e-01 3.8805970549583435e-01</leafValues></_>
        <_>
          <internalNodes>
            0 -1 79 -1.2470772489905357e-03</internalNodes>
          <leafValues>
            3.3205816149711609e-01 -6.2380135059356689e-01</leafValues></_>
        <_>
          <internalNodes>
            0 -1 53 -5.1736079156398773e-02</internalNodes>
          <leafValues>
            3.0104362964630127e-01 -7.3124426603317261e-01</leafValues></_>
        <_>
          <internalNodes>
            0 -1 139 5.8136902225669473e-05</internalNodes>
          <leafValues>
            -5.2042365074157715e-01 4.3425336480140686e-01</leafValues></_>
        <_>
          <internalNodes>
            0 -1 141 1.7913567717187107e-04</internalNodes>
          <leafValues>
            -3.5069683194160461e-01 6.0041129589080811e-01</leafValues></_>
        <_>
          <internalNodes>
            0 -1 78 -2.0973342179786414e-04</internalNodes>
          <leafValues>
            6.2718498706817627e-01 -3.8597247004508972e-01</leafValues></_></weakClassifiers></_>
    <!-- stage 5 -->
    <_>
      <maxWeakCount>6</maxWeakCount>
      <stageThreshold>-9.1286206245422363e-01</stageThreshold>
      <weakClassifiers>
        <_>
          <internalNodes>
            0 -1 133 1.6459680628031492e-03</internalNodes>
          <leafValues>
            -5.8754861354827881e-01 3.6000001430511475e-01</leafValues></_>
        <_>
          <internalNodes>
            0 -1 36 -8.1620892160572112e-05</internalNodes>
          <leafValues>
            3.2669746875762939e-01 -5.8136624097824097e-01</leafValues></_>
        <_>
          <internalNodes>
            0 -1 49 2.9143054038286209e-02</internalNodes>
          <leafValues>
            -4.6722722053527832e-01 4.9627542495727539e-01</leafValues></_>
        <_>
          <internalNodes>
            0 -1 3 1.1479611508548260e-02</internalNodes>
          <leafValues>
            -4.9230137467384338e-01 3.9853620529174805e-01</leafValues></_>
        <_>
          <internalNodes>
            0 -1 66 -6.7714689066633582e-05</internalNodes>
          <leafValues>
            5.5182683467864990e-01 -3.7475451827049255e-01</leafValues></_>
        <_>
          <internalNodes>
            0 -1 140 -3.3854396315291524e-04</internalNodes>
          <leafValues>
            7.0943915843963623e-01 -2.4430912733078003e-01</leafValues></_></weakClassifiers></_>
    <!-- stage 6 -->
    <_>
      <maxWeakCount>6</maxWeakCount>
      <stageThreshold>-8.3835142850875854e-01</stageThreshold>
      <weakClassifiers>
        <_>
          <internalNodes>
            0 -1 122 5.9403073973953724e-03</internalNodes>
          <leafValues>
            -5.4929578304290771e-01 4.1935482621192932e-01</leafValues></_>
        <_>
          <internalNodes>
            0 -1 90 -1.8971269950270653e-02</internalNodes>
          <leafValues>
            4.4419661164283752e-01 -5.1833450794219971e-01</leafValues></_>
        <_>
          <internalNodes>
            0 -1 21 1.1512602213770151e-03</internalNodes>
          <leafValues>
            -3.0993604660034180e-01 5.8913898468017578e-01</leafValues></_>
        <_>
          <internalNodes>
            0 -1 106 -3.1562830554321408e-04</internalNodes>
          <leafValues>
            7.0024371147155762e-01 -2.8415212035179138e-01</leafValues></_>
        <_>
          <internalNodes>
            0 -1 106 7.9576930147595704e-05</internalNodes>
          <leafValues>
            -2.6554843783378601e-01 5.6249052286148071e-01</leafValues></_>
        <_>
          <internalNodes>
            0 -1 11 -9.3573713675141335e-03</internalNodes>
          <leafValues>
            -7.0777416229248047e-01 3.0625113844871521e-01</leafValues></_></weakClassifiers></_>
    <!-- stage 7 -->
    <_>
      <maxWeakCount>7</maxWeakCount>
      <stageThreshold>-5.4514944553375244e-01</stageThreshold>
      <weakClassifiers>
        <_>
          <internalNodes>
            0 -1 80 -2.1041319705545902e-03</internalNodes>
          <leafValues>
            5.0660794973373413e-01 -5.4754096269607544e-01</leafValues></_>
        <_>
          <internalNodes>
            0 -1 146 1.3840200845152140e-03</internalNodes>
          <leafValues>
            -3.0975532531738281e-01 7.2964763641357422e-01</leafValues></_>
        <_>
          <internalNodes>
            0 -1 130 4.2289699194952846e-04</internalNodes>
          <leafValues>
            -2.3749002814292908e-01 7.6263988018035889e-01</leafValues></_>
        <_>
          <internalNodes>
            0 -1 128 -6.6807749681174755e-04</internalNodes>
          <leafValues>
            7.5194227695465088e-01 -2.2916652262210846e-01</leafValues></_>
        <_>
          <internalNodes>
            0 -1 89 2.9782038182020187e-03</internalNodes>
          <leafValues>
            -3.2171395421028137e-01 6.2851935625076294e-01</leafValues></_>
        <_>
          <internalNodes>
            0 -1 56 -8.1146895885467529e-02</internalNodes>
          <leafValues>
            4.0860265493392944e-01 -5.2238363027572632e-01</leafValues></_>
        <_>
          <internalNodes>
            0 -1 92 1.4798742486163974e-03</internalNodes>
          <leafValues>
            -2.5831854343414307e-01 7.5834280252456665e-01</leafValues></_></weakClassifiers></_>
    <!-- stage 8 -->
    <_>
      <maxWeakCount>6</maxWeakCount>
      <stageThreshold>-8.0646705627441406e-01</stageThreshold>
      <weakClassifiers>
        <_>
          <internalNodes>
            0 -1 25 -2.0327793899923563e-03</internalNodes>
          <leafValues>
            2.8348910808563232e-01 -6.7772513628005981e-01</leafValues></_>
        <_>
          <internalNodes>
            0 -1 27 6.1361929401755333e-03</internalNodes>
          <leafValues>
            -3.7777075171470642e-01 6.1787927150726318e-01</leafValues></_>
        <_>
          <internalNodes>
            0 -1 65 -3.0367163708433509e-04</internalNodes>
          <leafValues>
            7.4883264303207397e-01 -2.6117336750030518e-01</leafValues></_>
        <_>
          <internalNodes>
            0 -1 126 3.3360444009304047e-02</internalNodes>
          <leafValues>
            -4.1349333524703979e-01 4.6010497212409973e-01</leafValues></_>
        <_>
          <internalNodes>
            0 -1 18 4.2300201021134853e-03</internalNodes>
          <leafValues>
            -3.0820202827453613e-01 5.5982202291488647e-01</leafValues></_>
        <_>
          <internalNodes>
            0 -1 77 -9.3477582558989525e-03</internalNodes>
          <leafValues>
            4.2378038167953491e-01 -5.0972485542297363e-01</leafValues></_></weakClassifiers></_>
    <!-- stage 9 -->
    <_>
      <maxWeakCount>7</maxWeakCount>
      <stageThreshold>-4.5021316409111023e-01</stageThreshold>
      <weakClassifiers>
        <_>
          <internalNodes>
            0 -1 148 1.0684961453080177e-03</internalNodes>
          <leafValues>
            -3.2678133249282837e-01 6.4800000190734863e-01</leafValues></_>
        <_>
          <internalNodes>
            0 -1 149 -1.0796360438689590e-03</internalNodes>
          <leafValues>
            6.8267089128494263e-01 -2.6247492432594299e-01</leafValues></_>
        <_>
          <internalNodes>
            0 -1 112 -1.7057450022548437e-03</internalNodes>
          <leafValues>
            8.4462684392929077e-01 -1.6604410111904144e-01</leafValues></_>
        <_>
          <internalNodes>
            0 -1 15 -3.2979633659124374e-02</internalNodes>
          <leafValues>
            3.0198046565055847e-01 -5.8953523635864258e-01</leafValues></_>
        <_>
          <internalNodes>
            0 -1 151 2.1124910563230515e-03</internalNodes>
          <leafValues>
            -3.4112390875816345e-01 5.3434610366821289e-01</leafValues></_>
        <_>
          <internalNodes>
            0 -1 39 -4.5302920043468475e-03</internalNodes>
          <leafValues>
            6.8509197235107422e-01 -2.1269208192825317e-01</leafValues></_>
        <_>
          <internalNodes>
            0 -1 62 6.8199313245713711e-03</internalNodes>
          <leafValues>
            -2.6957598328590393e-01 5.7296842336654663e-01</leafValues></_></weakClassifiers></_>
    <!-- stage 10 -->
    <_>
      <maxWeakCount>8</maxWeakCount>
      <stageThreshold>-1.2635167837142944e+00</stageThreshold>
      <weakClassifiers>
        <_>
          <internalNodes>
            0 -1 75 -2.9429469257593155e-02</internalNodes>
          <leafValues>
            2.4223601818084717e-01 -6.1904764175415039e-01</leafValues></_>
        <_>
          <internalNodes>
            0 -1 28 6.8143075332045555e-03</internalNodes>
          <leafValues>
            -5.2336686849594116e-01 2.9865667223930359e-01</leafValues></_>
        <_>
          <internalNodes>
            0 -1 48 -1.7444265540689230e-04</internalNodes>
          <leafValues>
            4.6244454383850098e-01 -3.1069964170455933e-01</leafValues></_>
        <_>
          <internalNodes>
            0 -1 57 -3.5148288588970900e-05</internalNodes>
          <leafValues>
            5.1950699090957642e-01 -3.1759437918663025e-01</leafValues></_>
        <_>
          <internalNodes>
            0 -1 63 -5.0268676131963730e-03</internalNodes>
          <leafValues>
            7.9979634284973145e-01 -2.2954595088958740e-01</leafValues></_>
        <_>
          <internalNodes>
            0 -1 73 -1.6032806597650051e-03</internalNodes>
          <leafValues>
            7.0473510026931763e-01 -1.9483385980129242e-01</leafValues></_>
        <_>
          <internalNodes>
            0 -1 127 -9.9719464778900146e-03</internalNodes>
          <leafValues>
            3.1326037645339966e-01 -5.8382457494735718e-01</leafValues></_>
        <_>
          <internalNodes>
            0 -1 107 -1.5037987031973898e-04</internalNodes>
          <leafValues>
            6.2530988454818726e-01 -2.4545650184154510e-01</leafValues></_></weakClassifiers></_>
    <!-- stage 11 -->
    <_>
      <maxWeakCount>9</maxWeakCount>
      <stageThreshold>-1.0032310485839844e+00</stageThreshold>
      <weakClassifiers>
        <_>
          <internalNodes>
            0 -1 50 1.0793028771877289e-01</internalNodes>
          <leafValues>
            -4.5644599199295044e-01 3.2244896888732910e-01</leafValues></_>
        <_>
          <internalNodes>
            0 -1 44 -2.2135169804096222e-01</internalNodes>
          <leafValues>
            2.8369012475013733e-01 -5.4452598094940186e-01</leafValues></_>
        <_>
          <internalNodes>
            0 -1 138 -7.7326461905613542e-05</internalNodes>
          <leafValues>
            4.5604816079139709e-01 -3.2288345694541931e-01</leafValues></_>
        <_>
          <internalNodes>
            0 -1 113 2.5099109858274460e-02</internalNodes>
          <leafValues>
            -3.9700829982757568e-01 3.8009032607078552e-01</leafValues></_>
        <_>
          <internalNodes>
            0 -1 61 -3.0898234399501234e-05</internalNodes>
          <leafValues>
            2.8047001361846924e-01 -5.1253825426101685e-01</leafValues></_>
        <_>
          <internalNodes>
            0 -1 9 -2.0572827197611332e-03</internalNodes>
          <leafValues>
            -7.7842879295349121e-01 2.3798118531703949e-01</leafValues></_>
        <_>
          <internalNodes>
            0 -1 121 -9.3470915453508496e-04</internalNodes>
          <leafValues>
            2.8126356005668640e-01 -5.8196341991424561e-01</leafValues></_>
        <_>
          <internalNodes>
            0 -1 104 1.1089706793427467e-02</internalNodes>
          <leafValues>
            -2.8874850273132324e-01 5.7545059919357300e-01</leafValues></_>
        <_>
          <internalNodes>
            0 -1 95 1.9111642614006996e-03</internalNodes>
          <leafValues>
            -2.9790630936622620e-01 5.3791749477386475e-01</leafValues></_></weakClassifiers></_>
    <!-- stage 12 -->
    <_>
      <maxWeakCount>9</maxWeakCount>
      <stageThreshold>-9.1343283653259277e-01</stageThreshold>
      <weakClassifiers>
        <_>
          <internalNodes>
            0 -1 145 2.5327386538265273e-05</internalNodes>
          <leafValues>
            -5.8415842056274414e-01 2.0000000298023224e-01</leafValues></_>
        <_>
          <internalNodes>
            0 -1 136 -9.0473946183919907e-03</internalNodes>
          <leafValues>
            3.8544932007789612e-01 -4.0166872739791870e-01</leafValues></_>
        <_>
          <internalNodes>
            0 -1 108 1.1382657103240490e-03</internalNodes>
          <leafValues>
            -3.7914499640464783e-01 3.5775399208068848e-01</leafValues></_>
        <_>
          <internalNodes>
            0 -1 13 -9.0920738875865936e-03</internalNodes>
          <leafValues>
            -8.1662112474441528e-01 1.9918087124824524e-01</leafValues></_>
        <_>
          <internalNodes>
            0 -1 38 -3.7136116623878479e-01</internalNodes>
          <leafValues>
            3.8484504818916321e-01 -3.5999345779418945e-01</leafValues></_>
        <_>
          <internalNodes>
            0 -1 29 7.1680187247693539e-03</internalNodes>
          <leafValues>
            -2.6035958528518677e-01 5.4674929380416870e-01</leafValues></_>
        <_>
          <internalNodes>
            0 -1 33 -2.3569380864500999e-03</internalNodes>
          <leafValues>
            6.0610502958297729e-01 -2.1748478710651398e-01</leafValues></_>
        <_>
          <internalNodes>
            0 -1 91 -2.6492346660234034e-04</internalNodes>
          <leafValues>
            5.9369617700576782e-01 -2.0846974849700928e-01</leafValues></_>
        <_>
          <internalNodes>
            0 -1 103 -3.0744576361030340e-03</internalNodes>
          <leafValues>
            5.7405030727386475e-01 -2.3329055309295654e-01</leafValues></_></weakClassifiers></_>
    <!-- stage 13 -->
    <_>
      <maxWeakCount>9</maxWeakCount>
      <stageThreshold>-7.0911633968353271e-01</stageThreshold>
      <weakClassifiers>
        <_>
          <internalNodes>
            0 -1 98 -1.2288741767406464e-02</internalNodes>
          <leafValues>
            5.0303030014038086e-01 -3.6784741282463074e-01</leafValues></_>
        <_>
          <internalNodes>
            0 -1 105 -7.2610552888363600e-04</internalNodes>
          <leafValues>
            7.7089571952819824e-01 -1.7503048479557037e-01</leafValues></_>
        <_>
          <internalNodes>
            0 -1 144 -2.0903989672660828e-02</internalNodes>
          <leafValues>
            -8.4210276603698730e-01 1.8157348036766052e-01</leafValues></_>
        <_>
          <internalNodes>
            0 -1 67 -3.7339098751544952e-02</internalNodes>
          <leafValues>
            2.5396597385406494e-01 -5.1792478561401367e-01</leafValues></_>
        <_>
          <internalNodes>
            0 -1 105 2.7890468481928110e-04</internalNodes>
          <leafValues>
            -2.7993449568748474e-01 5.4121565818786621e-01</leafValues></_>
        <_>
          <internalNodes>
            0 -1 59 5.5838620755821466e-04</internalNodes>
          <leafValues>
            -2.2273918986320496e-01 5.5858904123306274e-01</leafValues></_>
        <_>
          <internalNodes>
            0 -1 51 -7.3664044030010700e-03</internalNodes>
          <leafValues>
            9.7462290525436401e-01 -1.2247637659311295e-01</leafValues></_>
        <_>
          <internalNodes>
            0 -1 52 1.0735951364040375e-03</internalNodes>
          <leafValues>
            -1.8736785650253296e-01 6.1559438705444336e-01</leafValues></_>
        <_>
          <internalNodes>
            0 -1 110 5.4714288562536240e-02</internalNodes>
          <leafValues>
            -4.6882677078247070e-01 3.1427913904190063e-01</leafValues></_></weakClassifiers></_>
    <!-- stage 14 -->
    <_>
      <maxWeakCount>10</maxWeakCount>
      <stageThreshold>-7.7917307615280151e-01</stageThreshold>
      <weakClassifiers>
        <_>
          <internalNodes>
            0 -1 35 -2.6429731398820877e-02</internalNodes>
          <leafValues>
            3.9487180113792419e-01 -3.8278931379318237e-01</leafValues></_>
        <_>
          <internalNodes>
            0 -1 46 -8.1683683674782515e-05</internalNodes>
          <leafValues>
            4.9519613385200500e-01 -2.4467052519321442e-01</leafValues></_>
        <_>
          <internalNodes>
            0 -1 47 1.3005912769585848e-03</internalNodes>
          <leafValues>
            -2.3476867377758026e-01 4.7662425041198730e-01</leafValues></_>
        <_>
          <internalNodes>
            0 -1 5 1.0753307491540909e-02</internalNodes>
          <leafValues>
            -3.7666550278663635e-01 3.0617225170135498e-01</leafValues></_>
        <_>
          <internalNodes>
            0 -1 101 -8.8289722800254822e-02</internalNodes>
          <leafValues>
            2.4304592609405518e-01 -4.8047396540641785e-01</leafValues></_>
        <_>
          <internalNodes>
            0 -1 114 -3.6895333323627710e-05</internalNodes>
          <leafValues>
            4.7075146436691284e-01 -2.9302290081977844e-01</leafValues></_>
        <_>
          <internalNodes>
            0 -1 72 5.3976720664650202e-04</internalNodes>
          <leafValues>
            -1.5895397961139679e-01 7.2018796205520630e-01</leafValues></_>
        <_>
          <internalNodes>
            0 -1 32 -2.1820288151502609e-02</internalNodes>
          <leafValues>
            -8.0852097272872925e-01 1.7154714465141296e-01</leafValues></_>
        <_>
          <internalNodes>
            0 -1 152 3.7246332794893533e-05</internalNodes>
          <leafValues>
            -4.6045550704002380e-01 2.9251676797866821e-01</leafValues></_>
        <_>
          <internalNodes>
            0 -1 2 1.1651887558400631e-02</internalNodes>
          <leafValues>
            -2.4885037541389465e-01 5.3077793121337891e-01</leafValues></_></weakClassifiers></_>
    <!-- stage 15 -->
    <_>
      <maxWeakCount>11</maxWeakCount>
      <stageThreshold>-1.1377825736999512e+00</stageThreshold>
      <weakClassifiers>
        <_>
          <internalNodes>
            0 -1 124 1.1335048824548721e-02</internalNodes>
          <leafValues>
            -3.3509233593940735e-01 4.9019607901573181e-01</leafValues></_>
        <_>
          <internalNodes>
            0 -1 60 1.2016105651855469e-01</internalNodes>
          <leafValues>
            -3.1185525655746460e-01 4.2524811625480652e-01</leafValues></_>
        <_>
          <internalNodes>
            0 -1 81 7.1636326611042023e-03</internalNodes>
          <leafValues>
            -1.8556569516658783e-01 5.8950018882751465e-01</leafValues></_>
        <_>
          <internalNodes>
            0 -1 94 7.1073410799726844e-04</internalNodes>
          <leafValues>
            -2.7775195240974426e-01 3.9356735348701477e-01</leafValues></_>
        <_>
          <internalNodes>
            0 -1 20 -5.3815878927707672e-03</internalNodes>
          <leafValues>
            -6.5926092863082886e-01 1.9429302215576172e-01</leafValues></_>
        <_>
          <internalNodes>
            0 -1 102 -5.0715543329715729e-02</internalNodes>
          <leafValues>
            2.6472887396812439e-01 -4.5682546496391296e-01</leafValues></_>
        <_>
          <internalNodes>
            0 -1 82 -1.7021066742017865e-03</internalNodes>
          <leafValues>
            4.7301062941551208e-01 -2.4586293101310730e-01</leafValues></_>
        <_>
          <internalNodes>
            0 -1 7 -5.5013941600918770e-03</internalNodes>
          <leafValues>
            -6.0446530580520630e-01 2.2186803817749023e-01</leafValues></_>
        <_>
          <internalNodes>
            0 -1 1 -8.3617551717907190e-04</internalNodes>
          <leafValues>
            -5.9510606527328491e-01 1.8607853353023529e-01</leafValues></_>
        <_>
          <internalNodes>
            0 -1 88 -1.8921690061688423e-03</internalNodes>
          <leafValues>
            3.5291928052902222e-01 -3.4365394711494446e-01</leafValues></_>
        <_>
          <internalNodes>
            0 -1 100 -4.7861813072813675e-05</internalNodes>
          <leafValues>
            4.6879437565803528e-01 -2.5473389029502869e-01</leafValues></_></weakClassifiers></_>
    <!-- stage 16 -->
    <_>
      <maxWeakCount>11</maxWeakCount>
      <stageThreshold>-6.9991171360015869e-01</stageThreshold>
      <weakClassifiers>
        <_>
          <internalNodes>
            0 -1 93 5.3509790450334549e-03</internalNodes>
          <leafValues>
            -2.4183006584644318e-01 8.0821919441223145e-01</leafValues></_>
        <_>
          <internalNodes>
            0 -1 99 3.6857303231954575e-02</internalNodes>
          <leafValues>
            -2.2132343053817749e-01 4.6809267997741699e-01</leafValues></_>
        <_>
          <internalNodes>
            0 -1 34 -6.6741518676280975e-02</internalNodes>
          <leafValues>
            2.0275852084159851e-01 -5.8121502399444580e-01</leafValues></_>
        <_>
          <internalNodes>
            0 -1 85 4.3607037514448166e-04</internalNodes>
          <leafValues>
            -2.4064639210700989e-01 4.8288837075233459e-01</leafValues></_>
        <_>
          <internalNodes>
            0 -1 120 9.6174573991447687e-04</internalNodes>
          <leafValues>
            -2.8863447904586792e-01 4.3112692236900330e-01</leafValues></_>
        <_>
          <internalNodes>
            0 -1 129 1.3758610002696514e-03</internalNodes>
          <leafValues>
            -2.2023636102676392e-01 7.3394387960433960e-01</leafValues></_>
        <_>
          <internalNodes>
            0 -1 125 -8.5020735859870911e-03</internalNodes>
          <leafValues>
            3.6554631590843201e-01 -3.4295186400413513e-01</leafValues></_>
        <_>
          <internalNodes>
            0 -1 45 -7.3640642222017050e-04</internalNodes>
          <leafValues>
            4.4223922491073608e-01 -2.7589830756187439e-01</leafValues></_>
        <_>
          <internalNodes>
            0 -1 115 -3.4635457268450409e-05</internalNodes>
          <leafValues>
            4.4799464941024780e-01 -2.5186374783515930e-01</leafValues></_>
        <_>
          <internalNodes>
            0 -1 22 -3.0989886727184057e-03</internalNodes>
          <leafValues>
            -7.1533888578414917e-01 1.6163736581802368e-01</leafValues></_>
        <_>
          <internalNodes>
            0 -1 97 -1.6998520586639643e-03</internalNodes>
          <leafValues>
            4.0042287111282349e-01 -3.0598530173301697e-01</leafValues></_></weakClassifiers></_>
    <!-- stage 17 -->
    <_>
      <maxWeakCount>13</maxWeakCount>
      <stageThreshold>-1.2920671701431274e+00</stageThreshold>
      <weakClassifiers>
        <_>
          <internalNodes>
            0 -1 23 1.2950432719662786e-03</internalNodes>
          <leafValues>
            7.6566122472286224e-02 -8.4158414602279663e-01</leafValues></_>
        <_>
          <internalNodes>
            0 -1 137 -3.2727772486396134e-04</internalNodes>
          <leafValues>
            5.5384922027587891e-01 -2.3448793590068817e-01</leafValues></_>
        <_>
          <internalNodes>
            0 -1 37 8.0845225602388382e-04</internalNodes>
          <leafValues>
            -4.7506394982337952e-01 2.5030440092086792e-01</leafValues></_>
        <_>
          <internalNodes>
            0 -1 143 3.2776186708360910e-04</internalNodes>
          <leafValues>
            2.0371448993682861e-01 -5.7628715038299561e-01</leafValues></_>
        <_>
          <internalNodes>
            0 -1 87 -3.8001145003363490e-04</internalNodes>
          <leafValues>
            2.5877609848976135e-01 -4.3363416194915771e-01</leafValues></_>
        <_>
          <internalNodes>
            0 -1 16 6.1502340249717236e-03</internalNodes>
          <leafValues>
            -2.5889089703559875e-01 5.8679568767547607e-01</leafValues></_>
        <_>
          <internalNodes>
            0 -1 0 1.8204866209998727e-03</internalNodes>
          <leafValues>
            2.2499811649322510e-01 -6.9470512866973877e-01</leafValues></_>
        <_>
          <internalNodes>
            0 -1 142 -1.1010003508999944e-03</internalNodes>
          <leafValues>
            3.8306337594985962e-01 -3.0899176001548767e-01</leafValues></_>
        <_>
          <internalNodes>
            0 -1 117 5.7250494137406349e-04</internalNodes>
          <leafValues>
            -2.3077537119388580e-01 4.9684071540832520e-01</leafValues></_>
        <_>
          <internalNodes>
            0 -1 154 -8.2120401784777641e-03</internalNodes>
          <leafValues>
            -6.1529886722564697e-01 2.0928035676479340e-01</leafValues></_>
        <_>
          <internalNodes>
            0 -1 8 9.8402462899684906e-03</internalNodes>
          <leafValues>
            -5.7869040966033936e-01 1.8007472157478333e-01</leafValues></_>
        <_>
          <internalNodes>
            0 -1 42 -2.4272885639220476e-04</internalNodes>
          <leafValues>
            6.1940902471542358e-01 -2.2204390168190002e-01</leafValues></_>
        <_>
          <internalNodes>
            0 -1 54 9.7111091017723083e-03</internalNodes>
          <leafValues>
            1.6174156963825226e-01 -8.8889026641845703e-01</leafValues></_></weakClassifiers></_>
    <!-- stage 18 -->
    <_>
      <maxWeakCount>11</maxWeakCount>
      <stageThreshold>-9.9679332971572876e-01</stageThreshold>
      <weakClassifiers>
        <_>
          <internalNodes>
            0 -1 31 -5.3150728344917297e-02</internalNodes>
          <leafValues>
            1.7834395170211792e-01 -4.9541285634040833e-01</leafValues></_>
        <_>
          <internalNodes>
            0 -1 123 6.5420162864029408e-03</internalNodes>
          <leafValues>
            -2.2479173541069031e-01 5.1102155447006226e-01</leafValues></_>
        <_>
          <internalNodes>
            0 -1 19 2.3665525950491428e-03</internalNodes>
          <leafValues>
            -2.0707754790782928e-01 4.9184840917587280e-01</leafValues></_>
        <_>
          <internalNodes>
            0 -1 70 7.7867135405540466e-04</internalNodes>
          <leafValues>
            -1.7018145322799683e-01 6.7648911476135254e-01</leafValues></_>
        <_>
          <internalNodes>
            0 -1 64 -5.1066912419628352e-05</internalNodes>
          <leafValues>
            4.5890513062477112e-01 -2.3240627348423004e-01</leafValues></_>
        <_>
          <internalNodes>
            0 -1 40 1.9097188487648964e-03</internalNodes>
          <leafValues>
            -1.2987324595451355e-01 7.5937056541442871e-01</leafValues></_>
        <_>
          <internalNodes>
            0 -1 153 -3.7906514480710030e-03</internalNodes>
          <leafValues>
            -7.2336488962173462e-01 1.6981306672096252e-01</leafValues></_>
        <_>
          <internalNodes>
            0 -1 30 -2.1979399025440216e-03</internalNodes>
          <leafValues>
            3.0909147858619690e-01 -3.8817697763442993e-01</leafValues></_>
        <_>
          <internalNodes>
            0 -1 43 -9.6881447825580835e-04</internalNodes>
          <leafValues>
            5.1264446973800659e-01 -2.4592408537864685e-01</leafValues></_>
        <_>
          <internalNodes>
            0 -1 135 -1.3962508819531649e-04</internalNodes>
          <leafValues>
            4.4999253749847412e-01 -2.4317525327205658e-01</leafValues></_>
        <_>
          <internalNodes>
            0 -1 147 4.8348403652198613e-04</internalNodes>
          <leafValues>
            -2.1406613290309906e-01 5.5651032924652100e-01</leafValues></_></weakClassifiers></_>
    <!-- stage 19 -->
    <_>
      <maxWeakCount>10</maxWeakCount>
      <stageThreshold>-7.9125112295150757e-01</stageThreshold>
      <weakClassifiers>
        <_>
          <internalNodes>
            0 -1 83 -4.3084710836410522e-02</internalNodes>
          <leafValues>
            9.5823094248771667e-02 -7.2799998521804810e-01</leafValues></_>
        <_>
          <internalNodes>
            0 -1 12 -6.1560235917568207e-04</internalNodes>
          <leafValues>
            -6.5261054039001465e-01 1.4339497685432434e-01</leafValues></_>
        <_>
          <internalNodes>
            0 -1 69 1.5058250166475773e-02</internalNodes>
          <leafValues>
            -2.3924525082111359e-01 4.4799539446830750e-01</leafValues></_>
        <_>
          <internalNodes>
            0 -1 86 -2.8673724955297075e-05</internalNodes>
          <leafValues>
            3.8290333747863770e-01 -2.7409276366233826e-01</leafValues></_>
        <_>
          <internalNodes>
            0 -1 150 -7.0091761881485581e-04</internalNodes>
          <leafValues>
            -6.9511979818344116e-01 1.8082599341869354e-01</leafValues></_>
        <_>
          <internalNodes>
            0 -1 24 3.6964094033464789e-04</internalNodes>
          <leafValues>
            1.3081470131874084e-01 -6.5995699167251587e-01</leafValues></_>
        <_>
          <internalNodes>
            0 -1 116 2.3168008774518967e-03</internalNodes>
          <leafValues>
            -1.9842907786369324e-01 6.5740460157394409e-01</leafValues></_>
        <_>
          <internalNodes>
            0 -1 71 3.6710340064018965e-03</internalNodes>
          <leafValues>
            -1.7866203188896179e-01 7.5138831138610840e-01</leafValues></_>
        <_>
          <internalNodes>
            0 -1 41 9.0541459619998932e-02</internalNodes>
          <leafValues>
            1.8843425810337067e-01 -7.6388460397720337e-01</leafValues></_>
        <_>
          <internalNodes>
            0 -1 58 5.6482399813830853e-03</internalNodes>
          <leafValues>
            -3.4479224681854248e-01 3.1784692406654358e-01</leafValues></_></weakClassifiers></_></stages>
  <features>
    <_>
      <rects>
        <_>
          0 0 4 1 -1.</_>
        <_>
          2 0 2 1 2.</_></rects>
      <tilted>0</tilted></_>
    <_>
      <rects>
        <_>
          0 0 6 1 -1.</_>
        <_>
          2 0 2 1 3.</_></rects>
      <tilted>0</tilted></_>
    <_>
      <rects>
        <_>
          0 0 4 14 -1.</_>
        <_>
          0 0 2 7 2.</_>
        <_>
          2 7 2 7 2.</_></rects>
      <tilted>0</tilted></_>
    <_>
      <rects>
        <_>
          0 0 14 4 -1.</_>
        <_>
          7 0 7 4 2.</_></rects>
      <tilted>0</tilted></_>
    <_>
      <rects>
        <_>
          0 0 10 8 -1.</_>
        <_>
          0 4 10 4 2.</_></rects>
      <tilted>0</tilted></_>
    <_>
      <rects>
        <_>
          0 0 22 2 -1.</_>
        <_>
          0 1 22 1 2.</_></rects>
      <tilted>0</tilted></_>
    <_>
      <rects>
        <_>
          0 0 24 4 -1.</_>
        <_>
          0 2 24 2 2.</_></rects>
      <tilted>0</tilted></_>
    <_>
      <rects>
        <_>
          0 1 3 10 -1.</_>
        <_>
          0 6 3 5 2.</_></rects>
      <tilted>0</tilted></_>
    <_>
      <rects>
        <_>
          0 1 6 11 -1.</_>
        <_>
          3 1 3 11 2.</_></rects>
      <tilted>0</tilted></_>
    <_>
      <rects>
        <_>
          0 1 6 4 -1.</_>
        <_>
          0 3 6 2 2.</_></rects>
      <tilted>0</tilted></_>
    <_>
      <rects>
        <_>
          0 1 14 5 -1.</_>
        <_>
          7 1 7 5 2.</_></rects>
      <tilted>0</tilted></_>
    <_>
      <rects>
        <_>
          0 2 1 22 -1.</_>
        <_>
          0 13 1 11 2.</_></rects>
      <tilted>0</tilted></_>
    <_>
      <rects>
        <_>
          0 3 1 4 -1.</_>
        <_>
          0 5 1 2 2.</_></rects>
      <tilted>0</tilted></_>
    <_>
      <rects>
        <_>
          0 3 1 18 -1.</_>
        <_>
          0 12 1 9 2.</_></rects>
      <tilted>0</tilted></_>
    <_>
      <rects>
        <_>
          0 3 8 5 -1.</_>
        <_>
          4 3 4 5 2.</_></rects>
      <tilted>0</tilted></_>
    <_>
      <rects>
        <_>
          0 3 10 22 -1.</_>
        <_>
          0 3 5 11 2.</_>
        <_>
          5 14 5 11 2.</_></rects>
      <tilted>0</tilted></_>
    <_>
      <rects>
        <_>
          0 5 3 12 -1.</_>
        <_>
          1 5 1 12 3.</_></rects>
      <tilted>0</tilted></_>
    <_>
      <rects>
        <_>
          0 5 10 20 -1.</_>
        <_>
          0 5 5 10 2.</_>
        <_>
          5 15 5 10 2.</_></rects>
      <tilted>0</tilted></_>
    <_>
      <rects>
        <_>
          0 6 2 10 -1.</_>
        <_>
          1 6 1 10 2.</_></rects>
      <tilted>0</tilted></_>
    <_>
      <rects>
        <_>
          0 11 3 5 -1.</_>
        <_>
          1 11 1 5 3.</_></rects>
      <tilted>0</tilted></_>
    <_>
      <rects>
        <_>
          0 13 1 12 -1.</_>
        <_>
          0 19 1 6 2.</_></rects>
      <tilted>0</tilted></_>
    <_>
      <rects>
        <_>
          0 13 4 1 -1.</_>
        <_>
          2 13 2 1 2.</_></rects>
      <tilted>0</tilted></_>
    <_>
      <rects>
        <_>
          0 17 1 8 -1.</_>
        <_>
          0 21 1 4 2.</_></rects>
      <tilted>0</tilted></_>
    <_>
      <rects>
        <_>
          0 20 1 4 -1.</_>
        <_>
          0 22 1 2 2.</_></rects>
      <tilted>0</tilted></_>
    <_>
      <rects>
        <_>
          0 22 2 3 -1.</_>
        <_>
          1 22 1 3 2.</_></rects>
      <tilted>0</tilted></_>
    <_>
      <rects>
        <_>
          0 22 18 3 -1.</_>
        <_>
          9 22 9 3 2.</_></rects>
      <tilted>0</tilted></_>
    <_>
      <rects>
        <_>
          0 24 24 1 -1.</_>
        <_>
          8 24 8 1 3.</_></rects>
      <tilted>0</tilted></_>
    <_>
      <rects>
        <_>
          1 0 14 2 -1.</_>
        <_>
          1 0 7 1 2.</_>
        <_>
          8 1 7 1 2.</_></rects>
      <tilted>0</tilted></_>
    <_>
      <rects>
        <_>
          1 0 16 2 -1.</_>
        <_>
          1 1 16 1 2.</_></rects>
      <tilted>0</tilted></_>
    <_>
      <rects>
        <_>
          1 2 4 8 -1.</_>
        <_>
          1 2 2 4 2.</_>
        <_>
          3 6 2 4 2.</_></rects>
      <tilted>0</tilted></_>
    <_>
      <rects>
        <_>
          1 14 6 4 -1.</_>
        <_>
          1 16 6 2 2.</_></rects>
      <tilted>0</tilted></_>
    <_>
      <rects>
        <_>
          1 17 17 8 -1.</_>
        <_>
          1 21 17 4 2.</_></rects>
      <tilted>0</tilted></_>
    <_>
      <rects>
        <_>
          2 0 20 2 -1.</_>
        <_>
          12 0 10 2 2.</_></rects>
      <tilted>0</tilted></_>
    <_>
      <rects>
        <_>
          2 3 2 8 -1.</_>
        <_>
          2 3 1 4 2.</_>
        <_>
          3 7 1 4 2.</_></rects>
      <tilted>0</tilted></_>
    <_>
      <rects>
        <_>
          2 6 8 18 -1.</_>
        <_>
          2 15 8 9 2.</_></rects>
      <tilted>0</tilted></_>
    <_>
      <rects>
        <_>
          2 21 16 4 -1.</_>
        <_>
          2 23 16 2 2.</_></rects>
      <tilted>0</tilted></_>
    <_>
      <rects>
        <_>
          2 22 4 3 -1.</_>
        <_>
          4 22 2 3 2.</_></rects>
      <tilted>0</tilted></_>
    <_>
      <rects>
        <_>
          3 1 1 8 -1.</_>
        <_>
          3 5 1 4 2.</_></rects>
      <tilted>0</tilted></_>
    <_>
      <rects>
        <_>
          3 1 18 24 -1.</_>
        <_>
          3 13 18 12 2.</_></rects>
      <tilted>0</tilted></_>
    <_>
      <rects>
        <_>
          3 2 6 4 -1.</_>
        <_>
          3 2 3 2 2.</_>
        <_>
          6 4 3 2 2.</_></rects>
      <tilted>0</tilted></_>
    <_>
      <rects>
        <_>
          3 4 4 2 -1.</_>
        <_>
          3 4 2 1 2.</_>
        <_>
          5 5 2 1 2.</_></rects>
      <tilted>0</tilted></_>
    <_>
      <rects>
        <_>
          3 4 22 13 -1.</_>
        <_>
          14 4 11 13 2.</_></rects>
      <tilted>0</tilted></_>
    <_>
      <rects>
        <_>
          3 7 2 1 -1.</_>
        <_>
          4 7 1 1 2.</_></rects>
      <tilted>0</tilted></_>
    <_>
      <rects>
        <_>
          3 7 3 3 -1.</_>
        <_>
          3 8 3 1 3.</_></rects>
      <tilted>0</tilted></_>
    <_>
      <rects>
        <_>
          3 7 18 18 -1.</_>
        <_>
          3 16 18 9 2.</_></rects>
      <tilted>0</tilted></_>
    <_>
      <rects>
        <_>
          3 8 6 2 -1.</_>
        <_>
          3 8 3 1 2.</_>
        <_>
          6 9 3 1 2.</_></rects>
      <tilted>0</tilted></_>
    <_>
      <rects>
        <_>
          3 10 2 1 -1.</_>
        <_>
          4 10 1 1 2.</_></rects>
      <tilted>0</tilted></_>
    <_>
      <rects>
        <_>
          3 10 3 4 -1.</_>
        <_>
          4 10 1 4 3.</_></rects>
      <tilted>0</tilted></_>
    <_>
      <rects>
        <_>
          3 12 1 2 -1.</_>
        <_>
          3 13 1 1 2.</_></rects>
      <tilted>0</tilted></_>
    <_>
      <rects>
        <_>
          4 0 15 4 -1.</_>
        <_>
          4 2 15 2 2.</_></rects>
      <tilted>0</tilted></_>
    <_>
      <rects>
        <_>
          4 0 18 12 -1.</_>
        <_>
          4 4 18 4 3.</_></rects>
      <tilted>0</tilted></_>
    <_>
      <rects>
        <_>
          4 4 4 4 -1.</_>
        <_>
          4 4 2 2 2.</_>
        <_>
          6 6 2 2 2.</_></rects>
      <tilted>0</tilted></_>
    <_>
      <rects>
        <_>
          4 5 2 4 -1.</_>
        <_>
          4 5 1 2 2.</_>
        <_>
          5 7 1 2 2.</_></rects>
      <tilted>0</tilted></_>
    <_>
      <rects>
        <_>
          4 5 8 18 -1.</_>
        <_>
          4 14 8 9 2.</_></rects>
      <tilted>0</tilted></_>
    <_>
      <rects>
        <_>
          4 5 16 12 -1.</_>
        <_>
          4 11 16 6 2.</_></rects>
      <tilted>0</tilted></_>
    <_>
      <rects>
        <_>
          4 5 19 20 -1.</_>
        <_>
          4 15 19 10 2.</_></rects>
      <tilted>0</tilted></_>
    <_>
      <rects>
        <_>
          4 9 8 16 -1.</_>
        <_>
          4 17 8 8 2.</_></rects>
      <tilted>0</tilted></_>
    <_>
      <rects>
        <_>
          4 12 2 2 -1.</_>
        <_>
          4 12 1 1 2.</_>
        <_>
          5 13 1 1 2.</_></rects>
      <tilted>0</tilted></_>
    <_>
      <rects>
        <_>
          4 19 19 6 -1.</_>
        <_>
          4 21 19 2 3.</_></rects>
      <tilted>0</tilted></_>
    <_>
      <rects>
        <_>
          4 23 3 2 -1.</_>
        <_>
          4 24 3 1 2.</_></rects>
      <tilted>0</tilted></_>
    <_>
      <rects>
        <_>
          5 0 17 12 -1.</_>
        <_>
          5 4 17 4 3.</_></rects>
      <tilted>0</tilted></_>
    <_>
      <rects>
        <_>
          5 24 2 1 -1.</_>
        <_>
          6 24 1 1 2.</_></rects>
      <tilted>0</tilted></_>
    <_>
      <rects>
        <_>
          6 0 6 8 -1.</_>
        <_>
          8 0 2 8 3.</_></rects>
      <tilted>0</tilted></_>
    <_>
      <rects>
        <_>
          6 2 8 2 -1.</_>
        <_>
          6 2 4 1 2.</_>
        <_>
          10 3 4 1 2.</_></rects>
      <tilted>0</tilted></_>
    <_>
      <rects>
        <_>
          6 3 2 1 -1.</_>
        <_>
          7 3 1 1 2.</_></rects>
      <tilted>0</tilted></_>
    <_>
      <rects>
        <_>
          6 6 2 2 -1.</_>
        <_>
          6 6 1 1 2.</_>
        <_>
          7 7 1 1 2.</_></rects>
      <tilted>0</tilted></_>
    <_>
      <rects>
        <_>
          6 9 2 1 -1.</_>
        <_>
          7 9 1 1 2.</_></rects>
      <tilted>0</tilted></_>
    <_>
      <rects>
        <_>
          6 15 9 10 -1.</_>
        <_>
          6 20 9 5 2.</_></rects>
      <tilted>0</tilted></_>
    <_>
      <rects>
        <_>
          7 0 10 2 -1.</_>
        <_>
          7 1 10 1 2.</_></rects>
      <tilted>0</tilted></_>
    <_>
      <rects>
        <_>
          7 0 13 2 -1.</_>
        <_>
          7 1 13 1 2.</_></rects>
      <tilted>0</tilted></_>
    <_>
      <rects>
        <_>
          7 1 2 2 -1.</_>
        <_>
          7 1 1 1 2.</_>
        <_>
          8 2 1 1 2.</_></rects>
      <tilted>0</tilted></_>
    <_>
      <rects>
        <_>
          7 1 6 1 -1.</_>
        <_>
          9 1 2 1 3.</_></rects>
      <tilted>0</tilted></_>
    <_>
      <rects>
        <_>
          7 3 2 2 -1.</_>
        <_>
          7 3 1 1 2.</_>
        <_>
          8 4 1 1 2.</_></rects>
      <tilted>0</tilted></_>
    <_>
      <rects>
        <_>
          7 5 4 2 -1.</_>
        <_>
          7 5 2 1 2.</_>
        <_>
          9 6 2 1 2.</_></rects>
      <tilted>0</tilted></_>
    <_>
      <rects>
        <_>
          7 11 1 2 -1.</_>
        <_>
          7 12 1 1 2.</_></rects>
      <tilted>0</tilted></_>
    <_>
      <rects>
        <_>
          7 17 10 8 -1.</_>
        <_>
          7 21 10 4 2.</_></rects>
      <tilted>0</tilted></_>
    <_>
      <rects>
        <_>
          8 0 14 12 -1.</_>
        <_>
          8 4 14 4 3.</_></rects>
      <tilted>0</tilted></_>
    <_>
      <rects>
        <_>
          8 3 10 10 -1.</_>
        <_>
          8 8 10 5 2.</_></rects>
      <tilted>0</tilted></_>
    <_>
      <rects>
        <_>
          8 5 2 2 -1.</_>
        <_>
          8 5 1 1 2.</_>
        <_>
          9 6 1 1 2.</_></rects>
      <tilted>0</tilted></_>
    <_>
      <rects>
        <_>
          8 21 11 2 -1.</_>
        <_>
          8 22 11 1 2.</_></rects>
      <tilted>0</tilted></_>
    <_>
      <rects>
        <_>
          8 22 7 2 -1.</_>
        <_>
          8 23 7 1 2.</_></rects>
      <tilted>0</tilted></_>
    <_>
      <rects>
        <_>
          9 0 6 3 -1.</_>
        <_>
          9 1 6 1 3.</_></rects>
      <tilted>0</tilted></_>
    <_>
      <rects>
        <_>
          9 2 2 8 -1.</_>
        <_>
          9 2 1 4 2.</_>
        <_>
          10 6 1 4 2.</_></rects>
      <tilted>0</tilted></_>
    <_>
      <rects>
        <_>
          9 13 13 12 -1.</_>
        <_>
          9 19 13 6 2.</_></rects>
      <tilted>0</tilted></_>
    <_>
      <rects>
        <_>
          9 21 10 2 -1.</_>
        <_>
          9 22 10 1 2.</_></rects>
      <tilted>0</tilted></_>
    <_>
      <rects>
        <_>
          10 4 4 2 -1.</_>
        <_>
          10 4 2 1 2.</_>
        <_>
          12 5 2 1 2.</_></rects>
      <tilted>0</tilted></_>
    <_>
      <rects>
        <_>
          10 5 2 1 -1.</_>
        <_>
          11 5 1 1 2.</_></rects>
      <tilted>0</tilted></_>
    <_>
      <rects>
        <_>
          10 5 6 4 -1.</_>
        <_>
          10 7 6 2 2.</_></rects>
      <tilted>0</tilted></_>
    <_>
      <rects>
        <_>
          10 20 1 4 -1.</_>
        <_>
          10 22 1 2 2.</_></rects>
      <tilted>0</tilted></_>
    <_>
      <rects>
        <_>
          11 0 6 3 -1.</_>
        <_>
          13 0 2 3 3.</_></rects>
      <tilted>0</tilted></_>
    <_>
      <rects>
        <_>
          11 2 14 2 -1.</_>
        <_>
          18 2 7 2 2.</_></rects>
      <tilted>0</tilted></_>
    <_>
      <rects>
        <_>
          11 9 2 1 -1.</_>
        <_>
          12 9 1 1 2.</_></rects>
      <tilted>0</tilted></_>
    <_>
      <rects>
        <_>
          11 22 5 3 -1.</_>
        <_>
          11 23 5 1 3.</_></rects>
      <tilted>0</tilted></_>
    <_>
      <rects>
        <_>
          12 1 6 2 -1.</_>
        <_>
          12 1 3 1 2.</_>
        <_>
          15 2 3 1 2.</_></rects>
      <tilted>0</tilted></_>
    <_>
      <rects>
        <_>
          12 5 6 2 -1.</_>
        <_>
          12 5 3 1 2.</_>
        <_>
          15 6 3 1 2.</_></rects>
      <tilted>0</tilted></_>
    <_>
      <rects>
        <_>
          12 6 6 2 -1.</_>
        <_>
          14 6 2 2 3.</_></rects>
      <tilted>0</tilted></_>
    <_>
      <rects>
        <_>
          12 22 2 2 -1.</_>
        <_>
          12 23 2 1 2.</_></rects>
      <tilted>0</tilted></_>
    <_>
      <rects>
        <_>
          12 22 3 2 -1.</_>
        <_>
          12 23 3 1 2.</_></rects>
      <tilted>0</tilted></_>
    <_>
      <rects>
        <_>
          13 1 8 2 -1.</_>
        <_>
          17 1 4 2 2.</_></rects>
      <tilted>0</tilted></_>
    <_>
      <rects>
        <_>
          13 1 10 12 -1.</_>
        <_>
          13 1 5 6 2.</_>
        <_>
          18 7 5 6 2.</_></rects>
      <tilted>0</tilted></_>
    <_>
      <rects>
        <_>
          13 7 2 2 -1.</_>
        <_>
          13 7 1 1 2.</_>
        <_>
          14 8 1 1 2.</_></rects>
      <tilted>0</tilted></_>
    <_>
      <rects>
        <_>
          13 7 7 18 -1.</_>
        <_>
          13 16 7 9 2.</_></rects>
      <tilted>0</tilted></_>
    <_>
      <rects>
        <_>
          13 11 6 14 -1.</_>
        <_>
          13 18 6 7 2.</_></rects>
      <tilted>0</tilted></_>
    <_>
      <rects>
        <_>
          13 23 5 2 -1.</_>
        <_>
          13 24 5 1 2.</_></rects>
      <tilted>0</tilted></_>
    <_>
      <rects>
        <_>
          14 0 3 6 -1.</_>
        <_>
          14 2 3 2 3.</_></rects>
      <tilted>0</tilted></_>
    <_>
      <rects>
        <_>
          14 4 2 2 -1.</_>
        <_>
          14 4 1 1 2.</_>
        <_>
          15 5 1 1 2.</_></rects>
      <tilted>0</tilted></_>
    <_>
      <rects>
        <_>
          14 6 2 2 -1.</_>
        <_>
          14 6 1 1 2.</_>
        <_>
          15 7 1 1 2.</_></rects>
      <tilted>0</tilted></_>
    <_>
      <rects>
        <_>
          14 16 2 2 -1.</_>
        <_>
          14 16 1 1 2.</_>
        <_>
          15 17 1 1 2.</_></rects>
      <tilted>0</tilted></_>
    <_>
      <rects>
        <_>
          14 23 6 2 -1.</_>
        <_>
          17 23 3 2 2.</_></rects>
      <tilted>0</tilted></_>
    <_>
      <rects>
        <_>
          15 0 10 24 -1.</_>
        <_>
          15 0 5 12 2.</_>
        <_>
          20 12 5 12 2.</_></rects>
      <tilted>0</tilted></_>
    <_>
      <rects>
        <_>
          15 1 10 22 -1.</_>
        <_>
          15 1 5 11 2.</_>
        <_>
          20 12 5 11 2.</_></rects>
      <tilted>0</tilted></_>
    <_>
      <rects>
        <_>
          15 1 10 24 -1.</_>
        <_>
          15 1 5 12 2.</_>
        <_>
          20 13 5 12 2.</_></rects>
      <tilted>0</tilted></_>
    <_>
      <rects>
        <_>
          15 2 2 6 -1.</_>
        <_>
          15 2 1 3 2.</_>
        <_>
          16 5 1 3 2.</_></rects>
      <tilted>0</tilted></_>
    <_>
      <rects>
        <_>
          15 2 10 16 -1.</_>
        <_>
          15 2 5 8 2.</_>
        <_>
          20 10 5 8 2.</_></rects>
      <tilted>0</tilted></_>
    <_>
      <rects>
        <_>
          15 6 2 2 -1.</_>
        <_>
          15 6 1 1 2.</_>
        <_>
          16 7 1 1 2.</_></rects>
      <tilted>0</tilted></_>
    <_>
      <rects>
        <_>
          15 8 2 2 -1.</_>
        <_>
          15 8 1 1 2.</_>
        <_>
          16 9 1 1 2.</_></rects>
      <tilted>0</tilted></_>
    <_>
      <rects>
        <_>
          15 9 2 8 -1.</_>
        <_>
          15 9 1 4 2.</_>
        <_>
          16 13 1 4 2.</_></rects>
      <tilted>0</tilted></_>
    <_>
      <rects>
        <_>
          15 10 4 2 -1.</_>
        <_>
          15 10 2 1 2.</_>
        <_>
          17 11 2 1 2.</_></rects>
      <tilted>0</tilted></_>
    <_>
      <rects>
        <_>
          15 11 2 2 -1.</_>
        <_>
          15 12 2 1 2.</_></rects>
      <tilted>0</tilted></_>
    <_>
      <rects>
        <_>
          15 15 3 10 -1.</_>
        <_>
          15 20 3 5 2.</_></rects>
      <tilted>0</tilted></_>
    <_>
      <rects>
        <_>
          15 18 3 6 -1.</_>
        <_>
          15 20 3 2 3.</_></rects>
      <tilted>0</tilted></_>
    <_>
      <rects>
        <_>
          15 20 3 4 -1.</_>
        <_>
          15 22 3 2 2.</_></rects>
      <tilted>0</tilted></_>
    <_>
      <rects>
        <_>
          15 23 10 2 -1.</_>
        <_>
          20 23 5 2 2.</_></rects>
      <tilted>0</tilted></_>
    <_>
      <rects>
        <_>
          16 1 4 6 -1.</_>
        <_>
          16 1 2 3 2.</_>
        <_>
          18 4 2 3 2.</_></rects>
      <tilted>0</tilted></_>
    <_>
      <rects>
        <_>
          16 1 4 10 -1.</_>
        <_>
          16 1 2 5 2.</_>
        <_>
          18 6 2 5 2.</_></rects>
      <tilted>0</tilted></_>
    <_>
      <rects>
        <_>
          16 17 5 6 -1.</_>
        <_>
          16 20 5 3 2.</_></rects>
      <tilted>0</tilted></_>
    <_>
      <rects>
        <_>
          17 7 8 18 -1.</_>
        <_>
          17 7 4 9 2.</_>
        <_>
          21 16 4 9 2.</_></rects>
      <tilted>0</tilted></_>
    <_>
      <rects>
        <_>
          17 8 6 12 -1.</_>
        <_>
          17 14 6 6 2.</_></rects>
      <tilted>0</tilted></_>
    <_>
      <rects>
        <_>
          17 13 4 2 -1.</_>
        <_>
          17 13 2 1 2.</_>
        <_>
          19 14 2 1 2.</_></rects>
      <tilted>0</tilted></_>
    <_>
      <rects>
        <_>
          17 14 2 4 -1.</_>
        <_>
          17 14 1 2 2.</_>
        <_>
          18 16 1 2 2.</_></rects>
      <tilted>0</tilted></_>
    <_>
      <rects>
        <_>
          18 4 2 2 -1.</_>
        <_>
          18 4 1 1 2.</_>
        <_>
          19 5 1 1 2.</_></rects>
      <tilted>0</tilted></_>
    <_>
      <rects>
        <_>
          18 11 2 2 -1.</_>
        <_>
          18 11 1 1 2.</_>
        <_>
          19 12 1 1 2.</_></rects>
      <tilted>0</tilted></_>
    <_>
      <rects>
        <_>
          18 20 2 2 -1.</_>
        <_>
          18 21 2 1 2.</_></rects>
      <tilted>0</tilted></_>
    <_>
      <rects>
        <_>
          19 2 4 6 -1.</_>
        <_>
          19 5 4 3 2.</_></rects>
      <tilted>0</tilted></_>
    <_>
      <rects>
        <_>
          19 3 6 5 -1.</_>
        <_>
          22 3 3 5 2.</_></rects>
      <tilted>0</tilted></_>
    <_>
      <rects>
        <_>
          19 5 1 2 -1.</_>
        <_>
          19 6 1 1 2.</_></rects>
      <tilted>0</tilted></_>
    <_>
      <rects>
        <_>
          19 6 6 3 -1.</_>
        <_>
          22 6 3 3 2.</_></rects>
      <tilted>0</tilted></_>
    <_>
      <rects>
        <_>
          19 8 2 2 -1.</_>
        <_>
          19 8 1 1 2.</_>
        <_>
          20 9 1 1 2.</_></rects>
      <tilted>0</tilted></_>
    <_>
      <rects>
        <_>
          19 18 2 2 -1.</_>
        <_>
          19 18 1 1 2.</_>
        <_>
          20 19 1 1 2.</_></rects>
      <tilted>0</tilted></_>
    <_>
      <rects>
        <_>
          19 22 2 3 -1.</_>
        <_>
          20 22 1 3 2.</_></rects>
      <tilted>0</tilted></_>
    <_>
      <rects>
        <_>
          20 5 2 2 -1.</_>
        <_>
          20 5 1 1 2.</_>
        <_>
          21 6 1 1 2.</_></rects>
      <tilted>0</tilted></_>
    <_>
      <rects>
        <_>
          20 6 4 2 -1.</_>
        <_>
          20 7 4 1 2.</_></rects>
      <tilted>0</tilted></_>
    <_>
      <rects>
        <_>
          20 9 1 4 -1.</_>
        <_>
          20 11 1 2 2.</_></rects>
      <tilted>0</tilted></_>
    <_>
      <rects>
        <_>
          21 0 3 1 -1.</_>
        <_>
          22 0 1 1 3.</_></rects>
      <tilted>0</tilted></_>
    <_>
      <rects>
        <_>
          21 17 4 8 -1.</_>
        <_>
          21 21 4 4 2.</_></rects>
      <tilted>0</tilted></_>
    <_>
      <rects>
        <_>
          21 24 4 1 -1.</_>
        <_>
          23 24 2 1 2.</_></rects>
      <tilted>0</tilted></_>
    <_>
      <rects>
        <_>
          22 8 2 6 -1.</_>
        <_>
          22 8 1 3 2.</_>
        <_>
          23 11 1 3 2.</_></rects>
      <tilted>0</tilted></_>
    <_>
      <rects>
        <_>
          22 10 2 2 -1.</_>
        <_>
          22 10 1 1 2.</_>
        <_>
          23 11 1 1 2.</_></rects>
      <tilted>0</tilted></_>
    <_>
      <rects>
        <_>
          22 11 3 2 -1.</_>
        <_>
          23 11 1 2 3.</_></rects>
      <tilted>0</tilted></_>
    <_>
      <rects>
        <_>
          22 11 3 3 -1.</_>
        <_>
          23 11 1 3 3.</_></rects>
      <tilted>0</tilted></_>
    <_>
      <rects>
        <_>
          22 23 3 2 -1.</_>
        <_>
          23 23 1 2 3.</_></rects>
      <tilted>0</tilted></_>
    <_>
      <rects>
        <_>
          23 10 2 14 -1.</_>
        <_>
          23 10 1 7 2.</_>
        <_>
          24 17 1 7 2.</_></rects>
      <tilted>0</tilted></_>
    <_>
      <rects>
        <_>
          23 22 2 3 -1.</_>
        <_>
          24 22 1 3 2.</_></rects>
      <tilted>0</tilted></_>
    <_>
      <rects>
        <_>
          24 1 1 10 -1.</_>
        <_>
          24 6 1 5 2.</_></rects>
      <tilted>0</tilted></_>
    <_>
      <rects>
        <_>
          24 5 1 18 -1.</_>
        <_>
          24 14 1 9 2.</_></rects>
      <tilted>0</tilted></_></features></cascade>
</opencv_storage>
