<?xml version="1.0"?>
<opencv_storage>
<cascade>
  <stageType>BOOST</stageType>
  <featureType>HAAR</featureType>
  <height>25</height>
  <width>25</width>
  <stageParams>
    <boostType>GAB</boostType>
    <minHitRate>9.9500000476837158e-01</minHitRate>
    <maxFalseAlarm>5.0000000000000000e-01</maxFalseAlarm>
    <weightTrimRate>9.4999999999999996e-01</weightTrimRate>
    <maxDepth>1</maxDepth>
    <maxWeakCount>100</maxWeakCount></stageParams>
  <featureParams>
    <maxCatCount>0</maxCatCount>
    <featSize>1</featSize>
    <mode>BASIC</mode></featureParams>
  <stageNum>16</stageNum>
  <stages>
    <!-- stage 0 -->
    <_>
      <maxWeakCount>5</maxWeakCount>
      <stageThreshold>-1.8377968072891235e+00</stageThreshold>
      <weakClassifiers>
        <_>
          <internalNodes>
            0 -1 88 2.9323190450668335e-02</internalNodes>
          <leafValues>
            -7.7859777212142944e-01 6.5423727035522461e-01</leafValues></_>
        <_>
          <internalNodes>
            0 -1 3 1.3296421617269516e-02</internalNodes>
          <leafValues>
            -7.0755642652511597e-01 5.7401573657989502e-01</leafValues></_>
        <_>
          <internalNodes>
            0 -1 71 -2.1475967951118946e-03</internalNodes>
          <leafValues>
            6.5804064273834229e-01 -5.4806101322174072e-01</leafValues></_>
        <_>
          <internalNodes>
            0 -1 11 -2.9878787696361542e-02</internalNodes>
          <leafValues>
            5.8581185340881348e-01 -5.9396308660507202e-01</leafValues></_>
        <_>
          <internalNodes>
            0 -1 78 2.5840120390057564e-02</internalNodes>
          <leafValues>
            -4.1572007536888123e-01 7.0703041553497314e-01</leafValues></_></weakClassifiers></_>
    <!-- stage 1 -->
    <_>
      <maxWeakCount>5</maxWeakCount>
      <stageThreshold>-7.7588784694671631e-01</stageThreshold>
      <weakClassifiers>
        <_>
          <internalNodes>
            0 -1 88 4.7656182199716568e-02</internalNodes>
          <leafValues>
            -6.6323024034500122e-01 6.3636362552642822e-01</leafValues></_>
        <_>
          <internalNodes>
            0 -1 10 -7.7857552096247673e-03</internalNodes>
          <leafValues>
            5.3388750553131104e-01 -7.2856253385543823e-01</leafValues></_>
        <_>
          <internalNodes>
            0 -1 79 -5.3001185879111290e-03</internalNodes>
          <leafValues>
            5.6097549200057983e-01 -6.2116736173629761e-01</leafValues></_>
        <_>
          <internalNodes>
            0 -1 6 2.6447284966707230e-02</internalNodes>
          <leafValues>
            -6.0212862491607666e-01 5.5225253105163574e-01</leafValues></_>
        <_>
          <internalNodes>
            0 -1 75 -3.2969863968901336e-04</internalNodes>
          <leafValues>
            6.8481969833374023e-01 -4.9763241410255432e-01</leafValues></_></weakClassifiers></_>
    <!-- stage 2 -->
    <_>
      <maxWeakCount>5</maxWeakCount>
      <stageThreshold>-1.5810295343399048e+00</stageThreshold>
      <weakClassifiers>
        <_>
          <internalNodes>
            0 -1 55 6.0518831014633179e-03</internalNodes>
          <leafValues>
            -6.0377359390258789e-01 7.0161288976669312e-01</leafValues></_>
        <_>
          <internalNodes>
            0 -1 35 -9.6327617764472961e-02</internalNodes>
          <leafValues>
            4.5298373699188232e-01 -8.8800054788589478e-01</leafValues></_>
        <_>
          <internalNodes>
            0 -1 43 9.2559523880481720e-02</internalNodes>
          <leafValues>
            -4.9829864501953125e-01 7.3887568712234497e-01</leafValues></_>
        <_>
          <internalNodes>
            0 -1 67 -5.4221549362409860e-05</internalNodes>
          <leafValues>
            5.9378325939178467e-01 -4.8254641890525818e-01</leafValues></_>
        <_>
          <internalNodes>
            0 -1 80 -8.2571546954568475e-05</internalNodes>
          <leafValues>
            5.8858430385589600e-01 -4.4939464330673218e-01</leafValues></_></weakClassifiers></_>
    <!-- stage 3 -->
    <_>
      <maxWeakCount>2</maxWeakCount>
      <stageThreshold>-3.4796556830406189e-01</stageThreshold>
      <weakClassifiers>
        <_>
          <internalNodes>
            0 -1 4 1.3305766507983208e-02</internalNodes>
          <leafValues>
            -7.8656125068664551e-01 5.7827478647232056e-01</leafValues></_>
        <_>
          <internalNodes>
            0 -1 115 1.9280614651506767e-05</internalNodes>
          <leafValues>
            -5.9156286716461182e-01 4.3859571218490601e-01</leafValues></_></weakClassifiers></_>
    <!-- stage 4 -->
    <_>
      <maxWeakCount>5</maxWeakCount>
      <stageThreshold>-9.1406512260437012e-01</stageThreshold>
      <weakClassifiers>
        <_>
          <internalNodes>
            0 -1 97 -1.4785118401050568e-02</internalNodes>
          <leafValues>
            4.4666665792465210e-01 -5.7142859697341919e-01</leafValues></_>
        <_>
          <internalNodes>
            0 -1 20 -5.2094310522079468e-03</internalNodes>
          <leafValues>
            5.0569272041320801e-01 -4.2256036400794983e-01</leafValues></_>
        <_>
          <internalNodes>
            0 -1 9 8.1359576433897018e-03</internalNodes>
          <leafValues>
            -6.4359313249588013e-01 3.7923300266265869e-01</leafValues></_>
        <_>
          <internalNodes>
            0 -1 105 -1.0178763477597386e-04</internalNodes>
          <leafValues>
            4.1568127274513245e-01 -5.3870517015457153e-01</leafValues></_>
        <_>
          <internalNodes>
            0 -1 62 -1.7740828916430473e-02</internalNodes>
          <leafValues>
            3.1993380188941956e-01 -7.1499049663543701e-01</leafValues></_></weakClassifiers></_>
    <!-- stage 5 -->
    <_>
      <maxWeakCount>8</maxWeakCount>
      <stageThreshold>-6.8879896402359009e-01</stageThreshold>
      <weakClassifiers>
        <_>
          <internalNodes>
            0 -1 69 6.2739206477999687e-03</internalNodes>
          <leafValues>
            -4.9226006865501404e-01 5.8024692535400391e-01</leafValues></_>
        <_>
          <internalNodes>
            0 -1 52 -3.5530503839254379e-02</internalNodes>
          <leafValues>
            4.8781222105026245e-01 -6.3973569869995117e-01</leafValues></_>
        <_>
          <internalNodes>
            0 -1 101 1.8621168565005064e-03</internalNodes>
          <leafValues>
            -3.3124226331710815e-01 7.0036739110946655e-01</leafValues></_>
        <_>
          <internalNodes>
            0 -1 106 2.4716933694435284e-05</internalNodes>
          <leafValues>
            -5.4453963041305542e-01 4.7246849536895752e-01</leafValues></_>
        <_>
          <internalNodes>
            0 -1 104 -2.6435457402840257e-04</internalNodes>
          <leafValues>
            6.7686712741851807e-01 -2.9871362447738647e-01</leafValues></_>
        <_>
          <internalNodes>
            0 -1 7 9.6400491893291473e-03</internalNodes>
          <leafValues>
            -3.7836197018623352e-01 4.9743559956550598e-01</leafValues></_>
        <_>
          <internalNodes>
            0 -1 86 -4.9588002730160952e-04</internalNodes>
          <leafValues>
            4.5298525691032410e-01 -5.3954219818115234e-01</leafValues></_>
        <_>
          <internalNodes>
            0 -1 83 4.8660131869837642e-04</internalNodes>
          <leafValues>
            -3.4271061420440674e-01 6.2818926572799683e-01</leafValues></_></weakClassifiers></_>
    <!-- stage 6 -->
    <_>
      <maxWeakCount>8</maxWeakCount>
      <stageThreshold>-1.0584634542465210e+00</stageThreshold>
      <weakClassifiers>
        <_>
          <internalNodes>
            0 -1 100 1.7454516142606735e-02</internalNodes>
          <leafValues>
            -4.5396825671195984e-01 4.9800798296928406e-01</leafValues></_>
        <_>
          <internalNodes>
            0 -1 58 -1.6269080340862274e-01</internalNodes>
          <leafValues>
            2.7883481979370117e-01 -7.6718270778656006e-01</leafValues></_>
        <_>
          <internalNodes>
            0 -1 61 2.9365872032940388e-03</internalNodes>
          <leafValues>
            -5.8010625839233398e-01 2.8699606657028198e-01</leafValues></_>
        <_>
          <internalNodes>
            0 -1 72 -2.3097486700862646e-03</internalNodes>
          <leafValues>
            4.6661591529846191e-01 -4.1547450423240662e-01</leafValues></_>
        <_>
          <internalNodes>
            0 -1 96 3.5750873386859894e-02</internalNodes>
          <leafValues>
            -4.2356011271476746e-01 3.6904254555702209e-01</leafValues></_>
        <_>
          <internalNodes>
            0 -1 111 5.5399097618646920e-05</internalNodes>
          <leafValues>
            -3.6135330796241760e-01 4.8279976844787598e-01</leafValues></_>
        <_>
          <internalNodes>
            0 -1 5 -7.1824813494458795e-04</internalNodes>
          <leafValues>
            -7.6054918766021729e-01 2.6150584220886230e-01</leafValues></_>
        <_>
          <internalNodes>
            0 -1 36 1.4814590103924274e-03</internalNodes>
          <leafValues>
            -2.3144394159317017e-01 7.3973947763442993e-01</leafValues></_></weakClassifiers></_>
    <!-- stage 7 -->
    <_>
      <maxWeakCount>8</maxWeakCount>
      <stageThreshold>-1.1685680150985718e+00</stageThreshold>
      <weakClassifiers>
        <_>
          <internalNodes>
            0 -1 29 -2.6380629278719425e-03</internalNodes>
          <leafValues>
            5.4054051637649536e-01 -4.0116280317306519e-01</leafValues></_>
        <_>
          <internalNodes>
            0 -1 89 8.8985748589038849e-03</internalNodes>
          <leafValues>
            -3.3556073904037476e-01 6.2608456611633301e-01</leafValues></_>
        <_>
          <internalNodes>
            0 -1 1 3.8238866254687309e-03</internalNodes>
          <leafValues>
            -2.3588930070400238e-01 7.4862247705459595e-01</leafValues></_>
        <_>
          <internalNodes>
            0 -1 107 1.4231954701244831e-03</internalNodes>
          <leafValues>
            -2.6341882348060608e-01 7.4543339014053345e-01</leafValues></_>
        <_>
          <internalNodes>
            0 -1 102 4.1699558496475220e-03</internalNodes>
          <leafValues>
            -2.1332153677940369e-01 7.3720324039459229e-01</leafValues></_>
        <_>
          <internalNodes>
            0 -1 110 2.6502209948375821e-04</internalNodes>
          <leafValues>
            -2.4003975093364716e-01 7.0075374841690063e-01</leafValues></_>
        <_>
          <internalNodes>
            0 -1 110 -2.4661442148499191e-04</internalNodes>
          <leafValues>
            7.6440191268920898e-01 -2.3916505277156830e-01</leafValues></_>
        <_>
          <internalNodes>
            0 -1 92 -3.7308179889805615e-04</internalNodes>
          <leafValues>
            7.8250956535339355e-01 -1.9053481519222260e-01</leafValues></_></weakClassifiers></_>
    <!-- stage 8 -->
    <_>
      <maxWeakCount>6</maxWeakCount>
      <stageThreshold>-8.9049369096755981e-01</stageThreshold>
      <weakClassifiers>
        <_>
          <internalNodes>
            0 -1 19 -1.7427803250029683e-03</internalNodes>
          <leafValues>
            4.3689319491386414e-01 -5.9533071517944336e-01</leafValues></_>
        <_>
          <internalNodes>
            0 -1 59 -5.5904515087604523e-02</internalNodes>
          <leafValues>
            3.0096608400344849e-01 -7.8119844198226929e-01</leafValues></_>
        <_>
          <internalNodes>
            0 -1 22 -5.5827844887971878e-02</internalNodes>
          <leafValues>
            5.2135103940963745e-01 -4.2238181829452515e-01</leafValues></_>
        <_>
          <internalNodes>
            0 -1 49 -1.6547559062018991e-04</internalNodes>
          <leafValues>
            5.7492864131927490e-01 -3.0830508470535278e-01</leafValues></_>
        <_>
          <internalNodes>
            0 -1 28 -3.0572749674320221e-03</internalNodes>
          <leafValues>
            6.9824141263961792e-01 -2.8131318092346191e-01</leafValues></_>
        <_>
          <internalNodes>
            0 -1 23 -1.4549742452800274e-02</internalNodes>
          <leafValues>
            5.2027213573455811e-01 -3.6475273966789246e-01</leafValues></_></weakClassifiers></_>
    <!-- stage 9 -->
    <_>
      <maxWeakCount>9</maxWeakCount>
      <stageThreshold>-1.2652944326400757e+00</stageThreshold>
      <weakClassifiers>
        <_>
          <internalNodes>
            0 -1 95 1.9450634717941284e-03</internalNodes>
          <leafValues>
            -2.2875817120075226e-01 8.1308412551879883e-01</leafValues></_>
        <_>
          <internalNodes>
            0 -1 8 -9.3353334814310074e-03</internalNodes>
          <leafValues>
            -6.9727861881256104e-01 2.5993812084197998e-01</leafValues></_>
        <_>
          <internalNodes>
            0 -1 50 1.7224207986146212e-03</internalNodes>
          <leafValues>
            -2.4320004880428314e-01 7.4266743659973145e-01</leafValues></_>
        <_>
          <internalNodes>
            0 -1 109 9.6607743762433529e-04</internalNodes>
          <leafValues>
            -2.5006923079490662e-01 6.2600207328796387e-01</leafValues></_>
        <_>
          <internalNodes>
            0 -1 25 3.5264999605715275e-03</internalNodes>
          <leafValues>
            -2.8354835510253906e-01 5.8668893575668335e-01</leafValues></_>
        <_>
          <internalNodes>
            0 -1 98 3.7081219255924225e-02</internalNodes>
          <leafValues>
            -2.8004348278045654e-01 5.2691733837127686e-01</leafValues></_>
        <_>
          <internalNodes>
            0 -1 30 1.1862842366099358e-03</internalNodes>
          <leafValues>
            -3.0590808391571045e-01 5.6935447454452515e-01</leafValues></_>
        <_>
          <internalNodes>
            0 -1 48 -5.1886342465877533e-02</internalNodes>
          <leafValues>
            2.8552013635635376e-01 -5.7021623849868774e-01</leafValues></_>
        <_>
          <internalNodes>
            0 -1 37 -5.6442699860781431e-04</internalNodes>
          <leafValues>
            7.3619008064270020e-01 -2.3372611403465271e-01</leafValues></_></weakClassifiers></_>
    <!-- stage 10 -->
    <_>
      <maxWeakCount>8</maxWeakCount>
      <stageThreshold>-1.1214760541915894e+00</stageThreshold>
      <weakClassifiers>
        <_>
          <internalNodes>
            0 -1 91 -6.5071100834757090e-04</internalNodes>
          <leafValues>
            3.2522797584533691e-01 -5.2742618322372437e-01</leafValues></_>
        <_>
          <internalNodes>
            0 -1 24 4.7443941235542297e-02</internalNodes>
          <leafValues>
            -4.0778350830078125e-01 4.2687714099884033e-01</leafValues></_>
        <_>
          <internalNodes>
            0 -1 51 -1.5509215882048011e-04</internalNodes>
          <leafValues>
            5.9663236141204834e-01 -2.4961751699447632e-01</leafValues></_>
        <_>
          <internalNodes>
            0 -1 63 -1.0213720379397273e-03</internalNodes>
          <leafValues>
            3.9543765783309937e-01 -3.9106404781341553e-01</leafValues></_>
        <_>
          <internalNodes>
            0 -1 12 1.7399087082594633e-03</internalNodes>
          <leafValues>
            -3.3742737770080566e-01 4.7949609160423279e-01</leafValues></_>
        <_>
          <internalNodes>
            0 -1 108 4.6554319851566106e-05</internalNodes>
          <leafValues>
            -4.0867450833320618e-01 3.8725417852401733e-01</leafValues></_>
        <_>
          <internalNodes>
            0 -1 39 1.1673406697809696e-03</internalNodes>
          <leafValues>
            -3.1131258606910706e-01 5.8822923898696899e-01</leafValues></_>
        <_>
          <internalNodes>
            0 -1 45 -2.9095672070980072e-03</internalNodes>
          <leafValues>
            6.9633591175079346e-01 -1.7421387135982513e-01</leafValues></_></weakClassifiers></_>
    <!-- stage 11 -->
    <_>
      <maxWeakCount>8</maxWeakCount>
      <stageThreshold>-7.2777867317199707e-01</stageThreshold>
      <weakClassifiers>
        <_>
          <internalNodes>
            0 -1 33 2.6973426342010498e-02</internalNodes>
          <leafValues>
            -5.0393700599670410e-01 3.5256409645080566e-01</leafValues></_>
        <_>
          <internalNodes>
            0 -1 41 -2.4922093871282414e-05</internalNodes>
          <leafValues>
            3.4933981299400330e-01 -5.5368542671203613e-01</leafValues></_>
        <_>
          <internalNodes>
            0 -1 27 -3.3428701572120190e-03</internalNodes>
          <leafValues>
            7.4842280149459839e-01 -1.9810831546783447e-01</leafValues></_>
        <_>
          <internalNodes>
            0 -1 65 -1.5843254327774048e-01</internalNodes>
          <leafValues>
            3.4921932220458984e-01 -4.3057572841644287e-01</leafValues></_>
        <_>
          <internalNodes>
            0 -1 70 1.8880208954215050e-02</internalNodes>
          <leafValues>
            -2.5590351223945618e-01 4.8971554636955261e-01</leafValues></_>
        <_>
          <internalNodes>
            0 -1 21 1.6225758194923401e-01</internalNodes>
          <leafValues>
            -3.0467557907104492e-01 5.2476865053176880e-01</leafValues></_>
        <_>
          <internalNodes>
            0 -1 87 1.2945353519171476e-03</internalNodes>
          <leafValues>
            -2.3020343482494354e-01 5.9217971563339233e-01</leafValues></_>
        <_>
          <internalNodes>
            0 -1 14 -7.3815430514514446e-03</internalNodes>
          <leafValues>
            -7.0557403564453125e-01 2.2389620542526245e-01</leafValues></_></weakClassifiers></_>
    <!-- stage 12 -->
    <_>
      <maxWeakCount>10</maxWeakCount>
      <stageThreshold>-9.1722351312637329e-01</stageThreshold>
      <weakClassifiers>
        <_>
          <internalNodes>
            0 -1 17 -4.5460432767868042e-02</internalNodes>
          <leafValues>
            2.7567568421363831e-01 -6.1224490404129028e-01</leafValues></_>
        <_>
          <internalNodes>
            0 -1 117 -4.2933365330100060e-03</internalNodes>
          <leafValues>
            -7.9210233688354492e-01 1.4712002873420715e-01</leafValues></_>
        <_>
          <internalNodes>
            0 -1 99 -1.0996427386999130e-02</internalNodes>
          <leafValues>
            1.9891539216041565e-01 -7.0101535320281982e-01</leafValues></_>
        <_>
          <internalNodes>
            0 -1 54 -2.3767735809087753e-02</internalNodes>
          <leafValues>
            4.6273058652877808e-01 -3.0202353000640869e-01</leafValues></_>
        <_>
          <internalNodes>
            0 -1 46 -2.2199657559394836e-01</internalNodes>
          <leafValues>
            4.9095880985260010e-01 -3.5384261608123779e-01</leafValues></_>
        <_>
          <internalNodes>
            0 -1 84 3.9058919064700603e-03</internalNodes>
          <leafValues>
            -2.2099043428897858e-01 6.0702657699584961e-01</leafValues></_>
        <_>
          <internalNodes>
            0 -1 81 4.8366643488407135e-02</internalNodes>
          <leafValues>
            -3.1000167131423950e-01 4.2975595593452454e-01</leafValues></_>
        <_>
          <internalNodes>
            0 -1 64 -8.2640803884714842e-04</internalNodes>
          <leafValues>
            6.9435191154479980e-01 -2.0348463952541351e-01</leafValues></_>
        <_>
          <internalNodes>
            0 -1 26 5.9586728457361460e-04</internalNodes>
          <leafValues>
            2.2466345131397247e-01 -7.9834371805191040e-01</leafValues></_>
        <_>
          <internalNodes>
            0 -1 47 -1.0403945343568921e-03</internalNodes>
          <leafValues>
            7.7475368976593018e-01 -2.2509223222732544e-01</leafValues></_></weakClassifiers></_>
    <!-- stage 13 -->
    <_>
      <maxWeakCount>10</maxWeakCount>
      <stageThreshold>-7.3512321710586548e-01</stageThreshold>
      <weakClassifiers>
        <_>
          <internalNodes>
            0 -1 60 9.5223421230912209e-03</internalNodes>
          <leafValues>
            -2.4044944345951080e-01 7.3553717136383057e-01</leafValues></_>
        <_>
          <internalNodes>
            0 -1 114 1.3720898423343897e-03</internalNodes>
          <leafValues>
            -2.2794890403747559e-01 5.9357792139053345e-01</leafValues></_>
        <_>
          <internalNodes>
            0 -1 13 3.4701880067586899e-03</internalNodes>
          <leafValues>
            -2.7503034472465515e-01 5.1510417461395264e-01</leafValues></_>
        <_>
          <internalNodes>
            0 -1 82 -2.1431937057059258e-04</internalNodes>
          <leafValues>
            6.1378270387649536e-01 -2.1382611989974976e-01</leafValues></_>
        <_>
          <internalNodes>
            0 -1 15 -5.2901739254593849e-03</internalNodes>
          <leafValues>
            -6.9863450527191162e-01 2.3951262235641479e-01</leafValues></_>
        <_>
          <internalNodes>
            0 -1 77 -7.8665632754564285e-03</internalNodes>
          <leafValues>
            4.0933519601821899e-01 -3.8809654116630554e-01</leafValues></_>
        <_>
          <internalNodes>
            0 -1 90 -1.2836686801165342e-04</internalNodes>
          <leafValues>
            4.6498873829841614e-01 -3.6871057748794556e-01</leafValues></_>
        <_>
          <internalNodes>
            0 -1 44 9.9629536271095276e-02</internalNodes>
          <leafValues>
            -3.3694005012512207e-01 4.6718314290046692e-01</leafValues></_>
        <_>
          <internalNodes>
            0 -1 74 -6.8516349419951439e-03</internalNodes>
          <leafValues>
            7.5222802162170410e-01 -2.0098124444484711e-01</leafValues></_>
        <_>
          <internalNodes>
            0 -1 113 -1.1191994417458773e-03</internalNodes>
          <leafValues>
            6.8426448106765747e-01 -1.9968055188655853e-01</leafValues></_></weakClassifiers></_>
    <!-- stage 14 -->
    <_>
      <maxWeakCount>13</maxWeakCount>
      <stageThreshold>-7.8195410966873169e-01</stageThreshold>
      <weakClassifiers>
        <_>
          <internalNodes>
            0 -1 42 1.0257610119879246e-02</internalNodes>
          <leafValues>
            -3.9222615957260132e-01 3.2862189412117004e-01</leafValues></_>
        <_>
          <internalNodes>
            0 -1 116 -7.7499104663729668e-03</internalNodes>
          <leafValues>
            -5.8530426025390625e-01 2.0727781951427460e-01</leafValues></_>
        <_>
          <internalNodes>
            0 -1 76 -1.9341277948115021e-04</internalNodes>
          <leafValues>
            4.5235159993171692e-01 -2.5068390369415283e-01</leafValues></_>
        <_>
          <internalNodes>
            0 -1 68 2.9361252672970295e-03</internalNodes>
          <leafValues>
            -1.5672060847282410e-01 5.9222149848937988e-01</leafValues></_>
        <_>
          <internalNodes>
            0 -1 57 -3.7578355986624956e-03</internalNodes>
          <leafValues>
            6.9573563337326050e-01 -1.8009389936923981e-01</leafValues></_>
        <_>
          <internalNodes>
            0 -1 112 -1.5109635423868895e-03</internalNodes>
          <leafValues>
            5.4006284475326538e-01 -2.0983418822288513e-01</leafValues></_>
        <_>
          <internalNodes>
            0 -1 2 1.7899250611662865e-02</internalNodes>
          <leafValues>
            -4.9823978543281555e-01 2.4756941199302673e-01</leafValues></_>
        <_>
          <internalNodes>
            0 -1 32 9.7959246486425400e-03</internalNodes>
          <leafValues>
            2.4449294805526733e-01 -5.6439059972763062e-01</leafValues></_>
        <_>
          <internalNodes>
            0 -1 56 -9.8147988319396973e-03</internalNodes>
          <leafValues>
            3.5178294777870178e-01 -3.7053194642066956e-01</leafValues></_>
        <_>
          <internalNodes>
            0 -1 85 8.3810294745489955e-04</internalNodes>
          <leafValues>
            -1.9387741386890411e-01 5.6873011589050293e-01</leafValues></_>
        <_>
          <internalNodes>
            0 -1 40 5.3581010433845222e-05</internalNodes>
          <leafValues>
            -3.2753613591194153e-01 3.5376524925231934e-01</leafValues></_>
        <_>
          <internalNodes>
            0 -1 34 -1.8275459297001362e-03</internalNodes>
          <leafValues>
            6.9005638360977173e-01 -2.0282492041587830e-01</leafValues></_>
        <_>
          <internalNodes>
            0 -1 53 -3.9769902825355530e-02</internalNodes>
          <leafValues>
            3.0772584676742554e-01 -4.2299941182136536e-01</leafValues></_></weakClassifiers></_>
    <!-- stage 15 -->
    <_>
      <maxWeakCount>10</maxWeakCount>
      <stageThreshold>-9.1555243730545044e-01</stageThreshold>
      <weakClassifiers>
        <_>
          <internalNodes>
            0 -1 16 -5.4694863501936197e-04</internalNodes>
          <leafValues>
            2.2879177331924438e-01 -6.0451978445053101e-01</leafValues></_>
        <_>
          <internalNodes>
            0 -1 0 8.2232188433408737e-03</internalNodes>
          <leafValues>
            1.3967999815940857e-01 -7.4541902542114258e-01</leafValues></_>
        <_>
          <internalNodes>
            0 -1 66 3.8775804569013417e-05</internalNodes>
          <leafValues>
            -2.6835638284683228e-01 5.0170952081680298e-01</leafValues></_>
        <_>
          <internalNodes>
            0 -1 31 3.6648800596594810e-03</internalNodes>
          <leafValues>
            -4.0379837155342102e-01 2.8903532028198242e-01</leafValues></_>
        <_>
          <internalNodes>
            0 -1 93 -2.1282583475112915e-03</internalNodes>
          <leafValues>
            6.6869235038757324e-01 -1.8603745102882385e-01</leafValues></_>
        <_>
          <internalNodes>
            0 -1 94 1.8160051695303991e-05</internalNodes>
          <leafValues>
            -5.0603348016738892e-01 2.4394603073596954e-01</leafValues></_>
        <_>
          <internalNodes>
            0 -1 38 -6.4993044361472130e-05</internalNodes>
          <leafValues>
            3.9410445094108582e-01 -2.9900276660919189e-01</leafValues></_>
        <_>
          <internalNodes>
            0 -1 103 6.3772639259696007e-04</internalNodes>
          <leafValues>
            -2.0367194712162018e-01 6.1510920524597168e-01</leafValues></_>
        <_>
          <internalNodes>
            0 -1 18 -9.3182884156703949e-03</internalNodes>
          <leafValues>
            -8.0842369794845581e-01 2.1613231301307678e-01</leafValues></_>
        <_>
          <internalNodes>
            0 -1 73 1.2603187002241611e-02</internalNodes>
          <leafValues>
            -1.9097031652927399e-01 9.8711097240447998e-01</leafValues></_></weakClassifiers></_></stages>
  <features>
    <_>
      <rects>
        <_>
          0 0 1 12 -1.</_>
        <_>
          0 4 1 4 3.</_></rects>
      <tilted>0</tilted></_>
    <_>
      <rects>
        <_>
          0 0 2 16 -1.</_>
        <_>
          0 0 1 8 2.</_>
        <_>
          1 8 1 8 2.</_></rects>
      <tilted>0</tilted></_>
    <_>
      <rects>
        <_>
          0 0 9 6 -1.</_>
        <_>
          0 3 9 3 2.</_></rects>
      <tilted>0</tilted></_>
    <_>
      <rects>
        <_>
          0 0 9 8 -1.</_>
        <_>
          0 4 9 4 2.</_></rects>
      <tilted>0</tilted></_>
    <_>
      <rects>
        <_>
          0 0 25 4 -1.</_>
        <_>
          0 2 25 2 2.</_></rects>
      <tilted>0</tilted></_>
    <_>
      <rects>
        <_>
          0 1 1 4 -1.</_>
        <_>
          0 3 1 2 2.</_></rects>
      <tilted>0</tilted></_>
    <_>
      <rects>
        <_>
          0 1 10 10 -1.</_>
        <_>
          5 1 5 10 2.</_></rects>
      <tilted>0</tilted></_>
    <_>
      <rects>
        <_>
          0 1 6 10 -1.</_>
        <_>
          0 6 6 5 2.</_></rects>
      <tilted>0</tilted></_>
    <_>
      <rects>
        <_>
          0 2 1 22 -1.</_>
        <_>
          0 13 1 11 2.</_></rects>
      <tilted>0</tilted></_>
    <_>
      <rects>
        <_>
          0 3 8 5 -1.</_>
        <_>
          4 3 4 5 2.</_></rects>
      <tilted>0</tilted></_>
    <_>
      <rects>
        <_>
          0 5 6 20 -1.</_>
        <_>
          0 5 3 10 2.</_>
        <_>
          3 15 3 10 2.</_></rects>
      <tilted>0</tilted></_>
    <_>
      <rects>
        <_>
          0 5 10 20 -1.</_>
        <_>
          0 5 5 10 2.</_>
        <_>
          5 15 5 10 2.</_></rects>
      <tilted>0</tilted></_>
    <_>
      <rects>
        <_>
          0 7 2 9 -1.</_>
        <_>
          1 7 1 9 2.</_></rects>
      <tilted>0</tilted></_>
    <_>
      <rects>
        <_>
          0 10 3 9 -1.</_>
        <_>
          1 10 1 9 3.</_></rects>
      <tilted>0</tilted></_>
    <_>
      <rects>
        <_>
          0 11 1 14 -1.</_>
        <_>
          0 18 1 7 2.</_></rects>
      <tilted>0</tilted></_>
    <_>
      <rects>
        <_>
          0 13 1 12 -1.</_>
        <_>
          0 19 1 6 2.</_></rects>
      <tilted>0</tilted></_>
    <_>
      <rects>
        <_>
          0 13 9 6 -1.</_>
        <_>
          0 16 9 3 2.</_></rects>
      <tilted>0</tilted></_>
    <_>
      <rects>
        <_>
          0 15 16 10 -1.</_>
        <_>
          0 20 16 5 2.</_></rects>
      <tilted>0</tilted></_>
    <_>
      <rects>
        <_>
          0 17 2 8 -1.</_>
        <_>
          0 21 2 4 2.</_></rects>
      <tilted>0</tilted></_>
    <_>
      <rects>
        <_>
          0 23 10 2 -1.</_>
        <_>
          5 23 5 2 2.</_></rects>
      <tilted>0</tilted></_>
    <_>
      <rects>
        <_>
          0 24 12 1 -1.</_>
        <_>
          6 24 6 1 2.</_></rects>
      <tilted>0</tilted></_>
    <_>
      <rects>
        <_>
          1 0 24 6 -1.</_>
        <_>
          9 0 8 6 3.</_></rects>
      <tilted>0</tilted></_>
    <_>
      <rects>
        <_>
          1 1 16 14 -1.</_>
        <_>
          1 1 8 7 2.</_>
        <_>
          9 8 8 7 2.</_></rects>
      <tilted>0</tilted></_>
    <_>
      <rects>
        <_>
          1 2 4 22 -1.</_>
        <_>
          1 2 2 11 2.</_>
        <_>
          3 13 2 11 2.</_></rects>
      <tilted>0</tilted></_>
    <_>
      <rects>
        <_>
          1 2 24 2 -1.</_>
        <_>
          9 2 8 2 3.</_></rects>
      <tilted>0</tilted></_>
    <_>
      <rects>
        <_>
          1 6 14 3 -1.</_>
        <_>
          1 7 14 1 3.</_></rects>
      <tilted>0</tilted></_>
    <_>
      <rects>
        <_>
          1 21 1 2 -1.</_>
        <_>
          1 22 1 1 2.</_></rects>
      <tilted>0</tilted></_>
    <_>
      <rects>
        <_>
          2 5 2 6 -1.</_>
        <_>
          2 5 1 3 2.</_>
        <_>
          3 8 1 3 2.</_></rects>
      <tilted>0</tilted></_>
    <_>
      <rects>
        <_>
          2 8 3 16 -1.</_>
        <_>
          3 8 1 16 3.</_></rects>
      <tilted>0</tilted></_>
    <_>
      <rects>
        <_>
          2 23 6 2 -1.</_>
        <_>
          5 23 3 2 2.</_></rects>
      <tilted>0</tilted></_>
    <_>
      <rects>
        <_>
          3 0 2 6 -1.</_>
        <_>
          3 0 1 3 2.</_>
        <_>
          4 3 1 3 2.</_></rects>
      <tilted>0</tilted></_>
    <_>
      <rects>
        <_>
          3 0 1 10 -1.</_>
        <_>
          3 5 1 5 2.</_></rects>
      <tilted>0</tilted></_>
    <_>
      <rects>
        <_>
          3 0 22 1 -1.</_>
        <_>
          14 0 11 1 2.</_></rects>
      <tilted>0</tilted></_>
    <_>
      <rects>
        <_>
          3 0 16 4 -1.</_>
        <_>
          3 2 16 2 2.</_></rects>
      <tilted>0</tilted></_>
    <_>
      <rects>
        <_>
          3 3 4 2 -1.</_>
        <_>
          3 3 2 1 2.</_>
        <_>
          5 4 2 1 2.</_></rects>
      <tilted>0</tilted></_>
    <_>
      <rects>
        <_>
          3 5 16 20 -1.</_>
        <_>
          3 15 16 10 2.</_></rects>
      <tilted>0</tilted></_>
    <_>
      <rects>
        <_>
          3 6 4 2 -1.</_>
        <_>
          3 6 2 1 2.</_>
        <_>
          5 7 2 1 2.</_></rects>
      <tilted>0</tilted></_>
    <_>
      <rects>
        <_>
          3 7 2 2 -1.</_>
        <_>
          3 7 1 1 2.</_>
        <_>
          4 8 1 1 2.</_></rects>
      <tilted>0</tilted></_>
    <_>
      <rects>
        <_>
          3 16 2 1 -1.</_>
        <_>
          4 16 1 1 2.</_></rects>
      <tilted>0</tilted></_>
    <_>
      <rects>
        <_>
          4 4 2 6 -1.</_>
        <_>
          4 4 1 3 2.</_>
        <_>
          5 7 1 3 2.</_></rects>
      <tilted>0</tilted></_>
    <_>
      <rects>
        <_>
          4 10 1 3 -1.</_>
        <_>
          4 11 1 1 3.</_></rects>
      <tilted>0</tilted></_>
    <_>
      <rects>
        <_>
          4 23 2 2 -1.</_>
        <_>
          5 23 1 2 2.</_></rects>
      <tilted>0</tilted></_>
    <_>
      <rects>
        <_>
          5 0 13 2 -1.</_>
        <_>
          5 1 13 1 2.</_></rects>
      <tilted>0</tilted></_>
    <_>
      <rects>
        <_>
          5 0 14 12 -1.</_>
        <_>
          5 4 14 4 3.</_></rects>
      <tilted>0</tilted></_>
    <_>
      <rects>
        <_>
          5 0 15 12 -1.</_>
        <_>
          5 4 15 4 3.</_></rects>
      <tilted>0</tilted></_>
    <_>
      <rects>
        <_>
          5 1 4 4 -1.</_>
        <_>
          5 1 2 2 2.</_>
        <_>
          7 3 2 2 2.</_></rects>
      <tilted>0</tilted></_>
    <_>
      <rects>
        <_>
          5 1 12 22 -1.</_>
        <_>
          5 12 12 11 2.</_></rects>
      <tilted>0</tilted></_>
    <_>
      <rects>
        <_>
          5 5 2 2 -1.</_>
        <_>
          5 5 1 1 2.</_>
        <_>
          6 6 1 1 2.</_></rects>
      <tilted>0</tilted></_>
    <_>
      <rects>
        <_>
          5 5 4 20 -1.</_>
        <_>
          5 15 4 10 2.</_></rects>
      <tilted>0</tilted></_>
    <_>
      <rects>
        <_>
          6 2 2 2 -1.</_>
        <_>
          6 2 1 1 2.</_>
        <_>
          7 3 1 1 2.</_></rects>
      <tilted>0</tilted></_>
    <_>
      <rects>
        <_>
          6 3 3 4 -1.</_>
        <_>
          7 3 1 4 3.</_></rects>
      <tilted>0</tilted></_>
    <_>
      <rects>
        <_>
          6 11 2 2 -1.</_>
        <_>
          6 11 1 1 2.</_>
        <_>
          7 12 1 1 2.</_></rects>
      <tilted>0</tilted></_>
    <_>
      <rects>
        <_>
          6 15 10 10 -1.</_>
        <_>
          6 20 10 5 2.</_></rects>
      <tilted>0</tilted></_>
    <_>
      <rects>
        <_>
          6 17 12 8 -1.</_>
        <_>
          6 21 12 4 2.</_></rects>
      <tilted>0</tilted></_>
    <_>
      <rects>
        <_>
          6 21 19 4 -1.</_>
        <_>
          6 23 19 2 2.</_></rects>
      <tilted>0</tilted></_>
    <_>
      <rects>
        <_>
          7 0 11 2 -1.</_>
        <_>
          7 1 11 1 2.</_></rects>
      <tilted>0</tilted></_>
    <_>
      <rects>
        <_>
          7 1 10 8 -1.</_>
        <_>
          7 1 5 4 2.</_>
        <_>
          12 5 5 4 2.</_></rects>
      <tilted>0</tilted></_>
    <_>
      <rects>
        <_>
          7 2 6 3 -1.</_>
        <_>
          7 3 6 1 3.</_></rects>
      <tilted>0</tilted></_>
    <_>
      <rects>
        <_>
          7 3 15 22 -1.</_>
        <_>
          7 14 15 11 2.</_></rects>
      <tilted>0</tilted></_>
    <_>
      <rects>
        <_>
          7 11 12 14 -1.</_>
        <_>
          7 18 12 7 2.</_></rects>
      <tilted>0</tilted></_>
    <_>
      <rects>
        <_>
          8 0 10 3 -1.</_>
        <_>
          8 1 10 1 3.</_></rects>
      <tilted>0</tilted></_>
    <_>
      <rects>
        <_>
          8 0 15 2 -1.</_>
        <_>
          8 1 15 1 2.</_></rects>
      <tilted>0</tilted></_>
    <_>
      <rects>
        <_>
          8 3 6 16 -1.</_>
        <_>
          8 11 6 8 2.</_></rects>
      <tilted>0</tilted></_>
    <_>
      <rects>
        <_>
          8 4 2 6 -1.</_>
        <_>
          8 7 2 3 2.</_></rects>
      <tilted>0</tilted></_>
    <_>
      <rects>
        <_>
          8 5 2 2 -1.</_>
        <_>
          8 5 1 1 2.</_>
        <_>
          9 6 1 1 2.</_></rects>
      <tilted>0</tilted></_>
    <_>
      <rects>
        <_>
          8 7 11 18 -1.</_>
        <_>
          8 16 11 9 2.</_></rects>
      <tilted>0</tilted></_>
    <_>
      <rects>
        <_>
          8 12 2 2 -1.</_>
        <_>
          8 12 1 1 2.</_>
        <_>
          9 13 1 1 2.</_></rects>
      <tilted>0</tilted></_>
    <_>
      <rects>
        <_>
          8 19 1 2 -1.</_>
        <_>
          8 20 1 1 2.</_></rects>
      <tilted>0</tilted></_>
    <_>
      <rects>
        <_>
          8 21 8 3 -1.</_>
        <_>
          8 22 8 1 3.</_></rects>
      <tilted>0</tilted></_>
    <_>
      <rects>
        <_>
          9 0 8 2 -1.</_>
        <_>
          9 1 8 1 2.</_></rects>
      <tilted>0</tilted></_>
    <_>
      <rects>
        <_>
          9 19 16 6 -1.</_>
        <_>
          9 19 8 3 2.</_>
        <_>
          17 22 8 3 2.</_></rects>
      <tilted>0</tilted></_>
    <_>
      <rects>
        <_>
          9 21 10 2 -1.</_>
        <_>
          9 22 10 1 2.</_></rects>
      <tilted>0</tilted></_>
    <_>
      <rects>
        <_>
          9 22 6 2 -1.</_>
        <_>
          9 23 6 1 2.</_></rects>
      <tilted>0</tilted></_>
    <_>
      <rects>
        <_>
          9 23 10 2 -1.</_>
        <_>
          9 24 10 1 2.</_></rects>
      <tilted>0</tilted></_>
    <_>
      <rects>
        <_>
          10 0 4 6 -1.</_>
        <_>
          10 0 2 3 2.</_>
        <_>
          12 3 2 3 2.</_></rects>
      <tilted>0</tilted></_>
    <_>
      <rects>
        <_>
          10 5 3 2 -1.</_>
        <_>
          10 6 3 1 2.</_></rects>
      <tilted>0</tilted></_>
    <_>
      <rects>
        <_>
          10 9 2 2 -1.</_>
        <_>
          10 9 1 1 2.</_>
        <_>
          11 10 1 1 2.</_></rects>
      <tilted>0</tilted></_>
    <_>
      <rects>
        <_>
          10 20 5 4 -1.</_>
        <_>
          10 22 5 2 2.</_></rects>
      <tilted>0</tilted></_>
    <_>
      <rects>
        <_>
          12 1 12 12 -1.</_>
        <_>
          12 1 6 6 2.</_>
        <_>
          18 7 6 6 2.</_></rects>
      <tilted>0</tilted></_>
    <_>
      <rects>
        <_>
          12 20 7 4 -1.</_>
        <_>
          12 22 7 2 2.</_></rects>
      <tilted>0</tilted></_>
    <_>
      <rects>
        <_>
          12 23 1 2 -1.</_>
        <_>
          12 24 1 1 2.</_></rects>
      <tilted>0</tilted></_>
    <_>
      <rects>
        <_>
          13 2 12 12 -1.</_>
        <_>
          13 2 6 6 2.</_>
        <_>
          19 8 6 6 2.</_></rects>
      <tilted>0</tilted></_>
    <_>
      <rects>
        <_>
          13 4 2 2 -1.</_>
        <_>
          13 4 1 1 2.</_>
        <_>
          14 5 1 1 2.</_></rects>
      <tilted>0</tilted></_>
    <_>
      <rects>
        <_>
          13 4 2 4 -1.</_>
        <_>
          13 4 1 2 2.</_>
        <_>
          14 6 1 2 2.</_></rects>
      <tilted>0</tilted></_>
    <_>
      <rects>
        <_>
          14 1 3 10 -1.</_>
        <_>
          15 1 1 10 3.</_></rects>
      <tilted>0</tilted></_>
    <_>
      <rects>
        <_>
          14 4 2 4 -1.</_>
        <_>
          14 4 1 2 2.</_>
        <_>
          15 6 1 2 2.</_></rects>
      <tilted>0</tilted></_>
    <_>
      <rects>
        <_>
          14 6 2 4 -1.</_>
        <_>
          14 8 2 2 2.</_></rects>
      <tilted>0</tilted></_>
    <_>
      <rects>
        <_>
          14 22 3 3 -1.</_>
        <_>
          14 23 3 1 3.</_></rects>
      <tilted>0</tilted></_>
    <_>
      <rects>
        <_>
          15 1 10 24 -1.</_>
        <_>
          15 1 5 12 2.</_>
        <_>
          20 13 5 12 2.</_></rects>
      <tilted>0</tilted></_>
    <_>
      <rects>
        <_>
          15 2 6 6 -1.</_>
        <_>
          15 2 3 3 2.</_>
        <_>
          18 5 3 3 2.</_></rects>
      <tilted>0</tilted></_>
    <_>
      <rects>
        <_>
          15 16 2 2 -1.</_>
        <_>
          15 16 1 1 2.</_>
        <_>
          16 17 1 1 2.</_></rects>
      <tilted>0</tilted></_>
    <_>
      <rects>
        <_>
          15 21 4 2 -1.</_>
        <_>
          15 22 4 1 2.</_></rects>
      <tilted>0</tilted></_>
    <_>
      <rects>
        <_>
          16 4 2 2 -1.</_>
        <_>
          16 4 1 1 2.</_>
        <_>
          17 5 1 1 2.</_></rects>
      <tilted>0</tilted></_>
    <_>
      <rects>
        <_>
          16 12 4 4 -1.</_>
        <_>
          16 12 2 2 2.</_>
        <_>
          18 14 2 2 2.</_></rects>
      <tilted>0</tilted></_>
    <_>
      <rects>
        <_>
          16 24 4 1 -1.</_>
        <_>
          18 24 2 1 2.</_></rects>
      <tilted>0</tilted></_>
    <_>
      <rects>
        <_>
          17 2 2 4 -1.</_>
        <_>
          17 2 1 2 2.</_>
        <_>
          18 4 1 2 2.</_></rects>
      <tilted>0</tilted></_>
    <_>
      <rects>
        <_>
          17 2 8 22 -1.</_>
        <_>
          17 2 4 11 2.</_>
        <_>
          21 13 4 11 2.</_></rects>
      <tilted>0</tilted></_>
    <_>
      <rects>
        <_>
          17 3 8 6 -1.</_>
        <_>
          21 3 4 6 2.</_></rects>
      <tilted>0</tilted></_>
    <_>
      <rects>
        <_>
          17 7 8 18 -1.</_>
        <_>
          17 7 4 9 2.</_>
        <_>
          21 16 4 9 2.</_></rects>
      <tilted>0</tilted></_>
    <_>
      <rects>
        <_>
          17 9 2 16 -1.</_>
        <_>
          17 17 2 8 2.</_></rects>
      <tilted>0</tilted></_>
    <_>
      <rects>
        <_>
          18 1 6 8 -1.</_>
        <_>
          18 5 6 4 2.</_></rects>
      <tilted>0</tilted></_>
    <_>
      <rects>
        <_>
          18 5 4 4 -1.</_>
        <_>
          18 5 2 2 2.</_>
        <_>
          20 7 2 2 2.</_></rects>
      <tilted>0</tilted></_>
    <_>
      <rects>
        <_>
          18 9 6 2 -1.</_>
        <_>
          20 9 2 2 3.</_></rects>
      <tilted>0</tilted></_>
    <_>
      <rects>
        <_>
          18 11 2 1 -1.</_>
        <_>
          19 11 1 1 2.</_></rects>
      <tilted>0</tilted></_>
    <_>
      <rects>
        <_>
          18 11 2 2 -1.</_>
        <_>
          18 11 1 1 2.</_>
        <_>
          19 12 1 1 2.</_></rects>
      <tilted>0</tilted></_>
    <_>
      <rects>
        <_>
          18 20 2 2 -1.</_>
        <_>
          18 21 2 1 2.</_></rects>
      <tilted>0</tilted></_>
    <_>
      <rects>
        <_>
          18 22 2 3 -1.</_>
        <_>
          19 22 1 3 2.</_></rects>
      <tilted>0</tilted></_>
    <_>
      <rects>
        <_>
          19 9 2 6 -1.</_>
        <_>
          19 9 1 3 2.</_>
        <_>
          20 12 1 3 2.</_></rects>
      <tilted>0</tilted></_>
    <_>
      <rects>
        <_>
          20 24 2 1 -1.</_>
        <_>
          21 24 1 1 2.</_></rects>
      <tilted>0</tilted></_>
    <_>
      <rects>
        <_>
          21 7 2 4 -1.</_>
        <_>
          21 7 1 2 2.</_>
        <_>
          22 9 1 2 2.</_></rects>
      <tilted>0</tilted></_>
    <_>
      <rects>
        <_>
          21 8 2 2 -1.</_>
        <_>
          21 8 1 1 2.</_>
        <_>
          22 9 1 1 2.</_></rects>
      <tilted>0</tilted></_>
    <_>
      <rects>
        <_>
          21 9 2 1 -1.</_>
        <_>
          22 9 1 1 2.</_></rects>
      <tilted>0</tilted></_>
    <_>
      <rects>
        <_>
          21 10 1 4 -1.</_>
        <_>
          21 12 1 2 2.</_></rects>
      <tilted>0</tilted></_>
    <_>
      <rects>
        <_>
          21 12 2 6 -1.</_>
        <_>
          21 12 1 3 2.</_>
        <_>
          22 15 1 3 2.</_></rects>
      <tilted>0</tilted></_>
    <_>
      <rects>
        <_>
          22 8 2 6 -1.</_>
        <_>
          22 8 1 3 2.</_>
        <_>
          23 11 1 3 2.</_></rects>
      <tilted>0</tilted></_>
    <_>
      <rects>
        <_>
          23 21 2 4 -1.</_>
        <_>
          24 21 1 4 2.</_></rects>
      <tilted>0</tilted></_>
    <_>
      <rects>
        <_>
          24 3 1 20 -1.</_>
        <_>
          24 13 1 10 2.</_></rects>
      <tilted>0</tilted></_>
    <_>
      <rects>
        <_>
          24 17 1 8 -1.</_>
        <_>
          24 21 1 4 2.</_></rects>
      <tilted>0</tilted></_></features></cascade>
</opencv_storage>
