<?xml version="1.0"?>
<opencv_storage>
<stage6>
  <maxWeakCount>5</maxWeakCount>
  <stageThreshold>-1.1777251213788986e-01</stageThreshold>
  <weakClassifiers>
    <_>
      <internalNodes>
        0 -1 19093 -7.7792890369892120e-02</internalNodes>
      <leafValues>
        7.0093458890914917e-01 -5.3623187541961670e-01</leafValues></_>
    <_>
      <internalNodes>
        0 -1 78289 -3.6514294333755970e-04</internalNodes>
      <leafValues>
        -8.9108318090438843e-01 4.2007932066917419e-01</leafValues></_>
    <_>
      <internalNodes>
        0 -1 42429 -1.4062039554119110e-02</internalNodes>
      <leafValues>
        5.1992791891098022e-01 -7.7503144741058350e-01</leafValues></_>
    <_>
      <internalNodes>
        0 -1 14967 3.7639017682522535e-03</internalNodes>
      <leafValues>
        3.0994284152984619e-01 -8.2366162538528442e-01</leafValues></_>
    <_>
      <internalNodes>
        0 -1 18461 1.3774931430816650e-02</internalNodes>
      <leafValues>
        -6.5948420763015747e-01 4.6346870064735413e-01</leafValues></_></weakClassifiers></stage6>
</opencv_storage>
