<?xml version="1.0"?>
<opencv_storage>
<stage17>
  <maxWeakCount>6</maxWeakCount>
  <stageThreshold>-6.4216750860214233e-01</stageThreshold>
  <weakClassifiers>
    <_>
      <internalNodes>
        0 -1 17685 -3.2396966218948364e-01</internalNodes>
      <leafValues>
        -1. 4.0789473056793213e-01</leafValues></_>
    <_>
      <internalNodes>
        0 -1 53926 1.0302830487489700e-02</internalNodes>
      <leafValues>
        -3.0315592885017395e-01 8.8701510429382324e-01</leafValues></_>
    <_>
      <internalNodes>
        0 -1 48300 -9.3830755213275552e-04</internalNodes>
      <leafValues>
        6.2414830923080444e-01 -2.9325148463249207e-01</leafValues></_>
    <_>
      <internalNodes>
        0 -1 28135 -1.1661448515951633e-03</internalNodes>
      <leafValues>
        6.8070811033248901e-01 -3.5302150249481201e-01</leafValues></_>
    <_>
      <internalNodes>
        0 -1 892 -5.1492430269718170e-02</internalNodes>
      <leafValues>
        -9.1631489992141724e-01 2.6162424683570862e-01</leafValues></_>
    <_>
      <internalNodes>
        0 -1 65631 2.7995943091809750e-03</internalNodes>
      <leafValues>
        -3.6225762963294983e-01 9.0360325574874878e-01</leafValues></_></weakClassifiers></stage17>
</opencv_storage>
