<?xml version="1.0"?>
<opencv_storage>
<stage19>
  <maxWeakCount>6</maxWeakCount>
  <stageThreshold>1.3115971349179745e-02</stageThreshold>
  <weakClassifiers>
    <_>
      <internalNodes>
        0 -1 1254 1.6833882778882980e-02</internalNodes>
      <leafValues>
        -7.2972971200942993e-01 4.6762588620185852e-01</leafValues></_>
    <_>
      <internalNodes>
        0 -1 27236 2.8455425053834915e-03</internalNodes>
      <leafValues>
        -3.0909207463264465e-01 7.2504460811614990e-01</leafValues></_>
    <_>
      <internalNodes>
        0 -1 50690 -1.5605123713612556e-02</internalNodes>
      <leafValues>
        3.4374189376831055e-01 -7.6524752378463745e-01</leafValues></_>
    <_>
      <internalNodes>
        0 -1 58206 -2.9251474887132645e-02</internalNodes>
      <leafValues>
        6.2268829345703125e-01 -4.2235806584358215e-01</leafValues></_>
    <_>
      <internalNodes>
        0 -1 13715 -8.6451182141900063e-04</internalNodes>
      <leafValues>
        5.6542623043060303e-01 -4.3995821475982666e-01</leafValues></_>
    <_>
      <internalNodes>
        0 -1 61075 -2.7396562509238720e-03</internalNodes>
      <leafValues>
        6.3998043537139893e-01 -4.5680019259452820e-01</leafValues></_></weakClassifiers></stage19>
</opencv_storage>
