<?xml version="1.0"?>
<opencv_storage>
<stage15>
  <maxWeakCount>5</maxWeakCount>
  <stageThreshold>-4.1212037205696106e-01</stageThreshold>
  <weakClassifiers>
    <_>
      <internalNodes>
        0 -1 3375 2.6177647523581982e-03</internalNodes>
      <leafValues>
        5.2671754360198975e-01 -6.8888890743255615e-01</leafValues></_>
    <_>
      <internalNodes>
        0 -1 33534 -4.4241532683372498e-02</internalNodes>
      <leafValues>
        3.7411239743232727e-01 -4.7295728325843811e-01</leafValues></_>
    <_>
      <internalNodes>
        0 -1 54471 4.9127237871289253e-03</internalNodes>
      <leafValues>
        -4.6633797883987427e-01 5.1275706291198730e-01</leafValues></_>
    <_>
      <internalNodes>
        0 -1 42393 -1.2347585288807750e-03</internalNodes>
      <leafValues>
        6.9889938831329346e-01 -3.4543764591217041e-01</leafValues></_>
    <_>
      <internalNodes>
        0 -1 25426 5.9647215530276299e-03</internalNodes>
      <leafValues>
        -3.2990530133247375e-01 6.4791953563690186e-01</leafValues></_></weakClassifiers></stage15>
</opencv_storage>
